<?xml version="1.0"?>
<opencv_storage>
<cascade>
  <stageType>BOOST</stageType>
  <featureType>LBP</featureType>
  <height>20</height>
  <width>20</width>
  <stageParams>
    <boostType>GAB</boostType>
    <minHitRate>9.9000000953674316e-001</minHitRate>
    <maxFalseAlarm>5.0000000000000000e-001</maxFalseAlarm>
    <weightTrimRate>9.4999999999999996e-001</weightTrimRate>
    <maxDepth>1</maxDepth>
    <maxWeakCount>100</maxWeakCount></stageParams>
  <featureParams>
    <maxCatCount>256</maxCatCount>
    <featSize>1</featSize></featureParams>
  <stageNum>14</stageNum>
  <stages>
    <!-- stage 0 -->
    <_>
      <maxWeakCount>6</maxWeakCount>
      <stageThreshold>-1.6753977537155151e+000</stageThreshold>
      <weakClassifiers>
        <_>
          <internalNodes>
            0 -1 155 269484272 -134278403 -2049 -60675 -1074021637
            -1073864549 -1073759233 -1140915526</internalNodes>
          <leafValues>
            -6.1146849393844604e-001 5.6064575910568237e-001</leafValues></_>
        <_>
          <internalNodes>
            0 -1 34 -1 -8650957 -8421377 -13403341 1065304063 -5095627
            2147434491 1060321075</internalNodes>
          <leafValues>
            -5.4441046714782715e-001 5.1474440097808838e-001</leafValues></_>
        <_>
          <internalNodes>
            0 -1 160 -258994032 -11258960 -131073 -180289 -67585032
            -511238 -4538369 -1146477912</internalNodes>
          <leafValues>
            -4.8027712106704712e-001 5.2792894840240479e-001</leafValues></_>
        <_>
          <internalNodes>
            0 -1 113 -170590212 -196609 896860156 -134348801 -131073
            -2228226 -131073 -6444374</internalNodes>
          <leafValues>
            -4.5647057890892029e-001 4.8966276645660400e-001</leafValues></_>
        <_>
          <internalNodes>
            0 -1 129 347094516 -33801219 -1076264961 -49219 -148483
            -201736 -1073889281 -1078460280</internalNodes>
          <leafValues>
            -4.5588174462318420e-001 4.1295853257179260e-001</leafValues></_>
        <_>
          <internalNodes>
            0 -1 225 -1390415885 12755122 -1476674822 -1503618422
            -1379930209 15466104 -268452615 -524550405</internalNodes>
          <leafValues>
            -2.9900354146957397e-001 4.7630029916763306e-001</leafValues></_></weakClassifiers></_>
    <!-- stage 1 -->
    <_>
      <maxWeakCount>7</maxWeakCount>
      <stageThreshold>-1.3449732065200806e+000</stageThreshold>
      <weakClassifiers>
        <_>
          <internalNodes>
            0 -1 194 -1 536813311 -1075839489 1073725439 -285237249
            -1073758209 -1191199233 687803647</internalNodes>
          <leafValues>
            -6.1235523223876953e-001 5.0086361169815063e-001</leafValues></_>
        <_>
          <internalNodes>
            0 -1 109 831525072 -1074446339 -180227 -1073922051
            -1107804227 -1073922051 -1073987585 -1080554840</internalNodes>
          <leafValues>
            -5.0865650177001953e-001 4.6128162741661072e-001</leafValues></_>
        <_>
          <internalNodes>
            0 -1 9 -1376262 -80677008 -224331280 -15673456 -196610
            -2949134 -199164176 -13371533</internalNodes>
          <leafValues>
            -4.4847321510314941e-001 4.8404216766357422e-001</leafValues></_>
        <_>
          <internalNodes>
            0 -1 54 1342207984 -688133 2147450879 2146646898 1042317311
            -708682 2147123199 1001599283</internalNodes>
          <leafValues>
            -4.7815597057342529e-001 4.2097580432891846e-001</leafValues></_>
        <_>
          <internalNodes>
            0 -1 90 -134348802 -136511492 -131073 -148481 -2228225
            -34291732 -131073 1004348074</internalNodes>
          <leafValues>
            -3.7409660220146179e-001 4.1531428694725037e-001</leafValues></_>
        <_>
          <internalNodes>
            0 -1 7 -286593538 -471306 -4747265 -720160 -822824961
            -393797 -337703425 -48013</internalNodes>
          <leafValues>
            -2.9454949498176575e-001 4.9474629759788513e-001</leafValues></_>
        <_>
          <internalNodes>
            0 -1 55 -545563269 -8439427 1595874931 -58497 -316399 -50689
            -139511038 -5281</internalNodes>
          <leafValues>
            -2.7775275707244873e-001 4.7218206524848938e-001</leafValues></_></weakClassifiers></_>
    <!-- stage 2 -->
    <_>
      <maxWeakCount>9</maxWeakCount>
      <stageThreshold>-1.3334914445877075e+000</stageThreshold>
      <weakClassifiers>
        <_>
          <internalNodes>
            0 -1 170 486538749 369096191 1073725439 -1073741825
            -1073742337 -1660944897 -1124095745 -1342177537</internalNodes>
          <leafValues>
            -4.3282428383827209e-001 6.0437196493148804e-001</leafValues></_>
        <_>
          <internalNodes>
            0 -1 92 -16385 -147457 939333631 -16385 -147457 -2311288
            -17409 982264456</internalNodes>
          <leafValues>
            -5.5454665422439575e-001 3.4689030051231384e-001</leafValues></_>
        <_>
          <internalNodes>
            0 -1 10 -286855426 -69634 -269156353 -1045792 1081397239
            -532481 -1 -571533</internalNodes>
          <leafValues>
            -3.8275334239006042e-001 4.6660348773002625e-001</leafValues></_>
        <_>
          <internalNodes>
            0 -1 57 1953650547 -294913 -32769 -50405 2071032695 -8966281
            -1081345 -35269</internalNodes>
          <leafValues>
            -3.6033684015274048e-001 4.7991636395454407e-001</leafValues></_>
        <_>
          <internalNodes>
            0 -1 183 -516 -34275332 -721625892 -774050564 -1998749444
            -301993729 16568540 16775423</internalNodes>
          <leafValues>
            -4.3447047472000122e-001 3.2933908700942993e-001</leafValues></_>
        <_>
          <internalNodes>
            0 -1 173 -21229348 -207799299 -149249 -49153 -16994824
            -4285447 -21053445 -1145427286</internalNodes>
          <leafValues>
            -3.0840086936950684e-001 4.3450105190277100e-001</leafValues></_>
        <_>
          <internalNodes>
            0 -1 43 -242 -8569549 -25216464 -172066021 -26073600 -99497
            -56152064 -67635614</internalNodes>
          <leafValues>
            -3.5536795854568481e-001 3.6437287926673889e-001</leafValues></_>
        <_>
          <internalNodes>
            0 -1 125 269488596 -167937 -1076020225 -151553 -147457
            -197633 -148481 -1075304790</internalNodes>
          <leafValues>
            -3.2880055904388428e-001 3.7123391032218933e-001</leafValues></_>
        <_>
          <internalNodes>
            0 -1 205 -362561526 -366821854 -2140788224 -1608339456
            -800980992 1347768388 -228393318 -210244789</internalNodes>
          <leafValues>
            -3.4919139742851257e-001 3.6016550660133362e-001</leafValues></_></weakClassifiers></_>
    <!-- stage 3 -->
    <_>
      <maxWeakCount>11</maxWeakCount>
      <stageThreshold>-1.4872090816497803e+000</stageThreshold>
      <weakClassifiers>
        <_>
          <internalNodes>
            0 -1 224 -1073741825 788529151 -1073758209 -1342194946
            -1342181377 805306367 -1 805306367</internalNodes>
          <leafValues>
            -5.2533221244812012e-001 4.0155676007270813e-001</leafValues></_>
        <_>
          <internalNodes>
            0 -1 127 -196611 -214019 -131073 -147459 -196611 -197633
            -212993 -1078458184</internalNodes>
          <leafValues>
            -3.6437475681304932e-001 4.8143556714057922e-001</leafValues></_>
        <_>
          <internalNodes>
            0 -1 133 -12583148 1880489749 -41943619 -171966593 -68
            -1107296257 -1191397192 -1463812421</internalNodes>
          <leafValues>
            -3.6568188667297363e-001 4.4499224424362183e-001</leafValues></_>
        <_>
          <internalNodes>
            0 -1 51 2133884918 -892933 -950273 2146646963 1970307063
            -950285 2146402303 2138273651</internalNodes>
          <leafValues>
            -4.5022678375244141e-001 3.5735082626342773e-001</leafValues></_>
        <_>
          <internalNodes>
            0 -1 162 -9437932 486603776 -243926156 -167905356 -16847108
            -5439586 -50529092 -117899585</internalNodes>
          <leafValues>
            -4.1046482324600220e-001 3.2336178421974182e-001</leafValues></_>
        <_>
          <internalNodes>
            0 -1 98 -1197427216 -1074202627 -147971 -155660 -1375879171
            -1073741825 -151553 -1073935156</internalNodes>
          <leafValues>
            -3.7245884537696838e-001 3.2076567411422729e-001</leafValues></_>
        <_>
          <internalNodes>
            0 -1 75 -353639774 -2136298846 -713088512 -202407934
            -1480086366 -2075664351 -940096896 -1041244029</internalNodes>
          <leafValues>
            -3.1460884213447571e-001 3.6384800076484680e-001</leafValues></_>
        <_>
          <internalNodes>
            0 -1 23 -65538 -66566 -1208942608 2146448160 -983044 -393217
            -2031622 2138273650</internalNodes>
          <leafValues>
            -4.0184181928634644e-001 2.7159968018531799e-001</leafValues></_>
        <_>
          <internalNodes>
            0 -1 172 234881021 262135283 1073724415 -1073742363
            -1073741825 -1929396993 -1157908225 -1895837969</internalNodes>
          <leafValues>
            -2.8452959656715393e-001 3.9183694124221802e-001</leafValues></_>
        <_>
          <internalNodes>
            0 -1 153 446445052 -114689 1073709055 -23555 -1141063681
            -49665 -1077952513 -1413610824</internalNodes>
          <leafValues>
            -3.3755421638488770e-001 3.0303847789764404e-001</leafValues></_>
        <_>
          <internalNodes>
            0 -1 119 353384956 -1107513347 530104318 -1075994657
            -34197505 -1078607874 -1393213954 986185864</internalNodes>
          <leafValues>
            -4.0208226442337036e-001 2.3435665667057037e-001</leafValues></_></weakClassifiers></_>
    <!-- stage 4 -->
    <_>
      <maxWeakCount>14</maxWeakCount>
      <stageThreshold>-1.6375920772552490e+000</stageThreshold>
      <weakClassifiers>
        <_>
          <internalNodes>
            0 -1 44 -32769 -32769 -49287 -129 -49291 -32769 -49350
            -32769</internalNodes>
          <leafValues>
            -4.1857570409774780e-001 4.7016596794128418e-001</leafValues></_>
        <_>
          <internalNodes>
            0 -1 142 278189268 285080725 1073741311 1073741791
            -1124074243 -1124073473 1023383806 687848703</internalNodes>
          <leafValues>
            -4.8645463585853577e-001 2.9700866341590881e-001</leafValues></_>
        <_>
          <internalNodes>
            0 -1 161 -142606507 -245497993 -33554881 1895825023
            -16778232 -1 -117507414 -1161822533</internalNodes>
          <leafValues>
            -3.0075907707214355e-001 4.6124154329299927e-001</leafValues></_>
        <_>
          <internalNodes>
            0 -1 16 -537989158 -262148 -16973826 -1014800 -825226048
            -33803 -528385 -661513</internalNodes>
          <leafValues>
            -3.8170498609542847e-001 3.4280282258987427e-001</leafValues></_>
        <_>
          <internalNodes>
            0 -1 223 -4097 687078383 -1073762570 -1602490642 -1628447281
            147844559 -319038210 -524550145</internalNodes>
          <leafValues>
            -2.5766515731811523e-001 4.3403461575508118e-001</leafValues></_>
        <_>
          <internalNodes>
            0 -1 138 880025596 -253963 -134217729 -49155 -33767427
            -214017 -147457 -1078458200</internalNodes>
          <leafValues>
            -3.9470759034156799e-001 2.9854401946067810e-001</leafValues></_>
        <_>
          <internalNodes>
            0 -1 65 -1062477686 -2138406238 -1057881088 -705978214
            -991956598 -2146801496 -724598656 -1058016017</internalNodes>
          <leafValues>
            -3.2779324054718018e-001 3.2478532195091248e-001</leafValues></_>
        <_>
          <internalNodes>
            0 -1 111 -1667201808 -147459 -1073889283 -149507 -1342325763
            -267281 -1342390273 -1345581876</internalNodes>
          <leafValues>
            -3.4203353524208069e-001 3.0165308713912964e-001</leafValues></_>
        <_>
          <internalNodes>
            0 -1 204 -71310806 -145234102 544385536 818078250 -8945150
            -613985790 -220478838 -212344245</internalNodes>
          <leafValues>
            -2.7119749784469604e-001 3.5119682550430298e-001</leafValues></_>
        <_>
          <internalNodes>
            0 -1 24 1119931894 -135204865 -135003149 1030750224
            1207241713 -34587654 -323585 2077295426</internalNodes>
          <leafValues>
            -3.5175344347953796e-001 2.4645866453647614e-001</leafValues></_>
        <_>
          <internalNodes>
            0 -1 181 -33567556 -4915788 1576334516 -646122444
            -1929592580 -561185580 -861086468 -924002088</internalNodes>
          <leafValues>
            -4.9600091576576233e-001 1.7792640626430511e-001</leafValues></_>
        <_>
          <internalNodes>
            0 -1 50 -403546637 -835593 -33734657 -13485390 1195403251
            2138207031 1877442303 -563337</internalNodes>
          <leafValues>
            -2.8508397936820984e-001 2.9988077282905579e-001</leafValues></_>
        <_>
          <internalNodes>
            0 -1 146 5256432 -2313680 2013009917 -426412 -1214466116
            -19126276 -6504450 -1074264392</internalNodes>
          <leafValues>
            -3.5967829823493958e-001 2.2530673444271088e-001</leafValues></_>
        <_>
          <internalNodes>
            0 -1 198 247451125 654307325 -1392541833 -1879050889
            1035938303 230686715 901721791 -1946158081</internalNodes>
          <leafValues>
            -2.9903891682624817e-001 2.5241038203239441e-001</leafValues></_></weakClassifiers></_>
    <!-- stage 5 -->
    <_>
      <maxWeakCount>15</maxWeakCount>
      <stageThreshold>-1.6216316223144531e+000</stageThreshold>
      <weakClassifiers>
        <_>
          <internalNodes>
            0 -1 34 -1 -4456653 -129 -819337 1065303935 -49165
            2147450879 2146924411</internalNodes>
          <leafValues>
            -4.8610022664070129e-001 3.3677724003791809e-001</leafValues></_>
        <_>
          <internalNodes>
            0 -1 132 -8389356 -46137569 -4194497 -1086324929 -16777796
            -257 -88163654 -1430258113</internalNodes>
          <leafValues>
            -3.2002651691436768e-001 4.4604852795600891e-001</leafValues></_>
        <_>
          <internalNodes>
            0 -1 222 -1 788459007 -1342194178 -1359049042 -1879060497
            754904284 -1895837697 16506623</internalNodes>
          <leafValues>
            -4.2475935816764832e-001 3.0126059055328369e-001</leafValues></_>
        <_>
          <internalNodes>
            0 -1 61 -890568706 -336924702 -806039553 -818976 1172699127
            -524545 1207423987 -568333</internalNodes>
          <leafValues>
            -3.3078351616859436e-001 3.5524925589561462e-001</leafValues></_>
        <_>
          <internalNodes>
            0 -1 141 339736828 358399284 -1107305219 -1073741857
            -1124075267 -1124205315 -1124099842 686618760</internalNodes>
          <leafValues>
            -3.9987769722938538e-001 3.0818003416061401e-001</leafValues></_>
        <_>
          <internalNodes>
            0 -1 114 -131073 -4097 -37945345 -539101185 -136193 -131073
            -655361 -152902</internalNodes>
          <leafValues>
            -2.8491371870040894e-001 3.6165481805801392e-001</leafValues></_>
        <_>
          <internalNodes>
            0 -1 121 412094932 -37896235 -950305 -49409 -33780232
            -155649 -21054721 -1141178360</internalNodes>
          <leafValues>
            -2.9223474860191345e-001 3.1798538565635681e-001</leafValues></_>
        <_>
          <internalNodes>
            0 -1 76 -846749566 -2146785662 277151776 -572804446
            -733933402 206 1888814208 -1041238277</internalNodes>
          <leafValues>
            -3.2828313112258911e-001 2.7816939353942871e-001</leafValues></_>
        <_>
          <internalNodes>
            0 -1 58 2134341623 -4227082 -69763073 1071331195 2138537855
            -1868801 -71598081 -37001</internalNodes>
          <leafValues>
            -2.4823398888111115e-001 3.4969523549079895e-001</leafValues></_>
        <_>
          <internalNodes>
            0 -1 189 -1 -131588 -100803076 -104993540 -1140883220 -15108
            419205308 973049087</internalNodes>
          <leafValues>
            -2.6582705974578857e-001 3.3594071865081787e-001</leafValues></_>
        <_>
          <internalNodes>
            0 -1 123 -748 284472597 -101204483 -1252131401 -265288
            -1260650817 552413224 549453503</internalNodes>
          <leafValues>
            -3.5812154412269592e-001 2.2882173955440521e-001</leafValues></_>
        <_>
          <internalNodes>
            0 -1 160 -138930160 -52361 -604913665 -49475 -83970402
            -1078444816 -852485 -1141235166</internalNodes>
          <leafValues>
            -2.9117310047149658e-001 2.6050820946693420e-001</leafValues></_>
        <_>
          <internalNodes>
            0 -1 107 -60960752 336868372 -1442873859 -1107321441
            -235277059 -1090790913 1071627519 681372332</internalNodes>
          <leafValues>
            -3.4433770179748535e-001 2.2215361893177032e-001</leafValues></_>
        <_>
          <internalNodes>
            0 -1 203 -768096190 -753679548 -219883518 1918040726
            -129515008 -798971072 -218965366 -230430142</internalNodes>
          <leafValues>
            -2.8394430875778198e-001 2.6111796498298645e-001</leafValues></_>
        <_>
          <internalNodes>
            0 -1 20 -993079646 -1071593232 13815541 364987504 -827601976
            -2008089359 -1057502465 -817377325</internalNodes>
          <leafValues>
            -2.5518608093261719e-001 2.9474261403083801e-001</leafValues></_></weakClassifiers></_>
    <!-- stage 6 -->
    <_>
      <maxWeakCount>16</maxWeakCount>
      <stageThreshold>-1.5791575908660889e+000</stageThreshold>
      <weakClassifiers>
        <_>
          <internalNodes>
            0 -1 46 -354226182 -851977 -262145 -294917 20466 -9228301
            2146861055 2138523507</internalNodes>
          <leafValues>
            -4.8892050981521606e-001 2.6569789648056030e-001</leafValues></_>
        <_>
          <internalNodes>
            0 -1 143 542638069 1073741821 1073741823 -1073741825
            -1073742337 -1073747201 1056947455 -1342177281</internalNodes>
          <leafValues>
            -3.0913677811622620e-001 4.1308748722076416e-001</leafValues></_>
        <_>
          <internalNodes>
            0 -1 99 -1282926128 -1073954819 -537018369 -1073889539
            -1073922051 -1073922049 -245761 1070402189</internalNodes>
          <leafValues>
            -4.4051808118820190e-001 2.6873052120208740e-001</leafValues></_>
        <_>
          <internalNodes>
            0 -1 196 -769 234818655 -1107300353 469708543 -100672003
            -1073754707 -117442308 540798204</internalNodes>
          <leafValues>
            -3.8049992918968201e-001 3.1203773617744446e-001</leafValues></_>
        <_>
          <internalNodes>
            0 -1 14 -328706 -13601998 -97454096 -542083216 -85000706
            -328269 -47120904 -3975309</internalNodes>
          <leafValues>
            -3.9092034101486206e-001 2.6691448688507080e-001</leafValues></_>
        <_>
          <internalNodes>
            0 -1 200 -13745 -243269777 -1426084694 812120682 -25231352
            -128040957 -1326997334 -228593141</internalNodes>
          <leafValues>
            -2.8789678215980530e-001 3.4890958666801453e-001</leafValues></_>
        <_>
          <internalNodes>
            0 -1 126 268439796 -1321697348 -1076019201 -4341825
            -37879811 -33751364 -1074810881 671612936</internalNodes>
          <leafValues>
            -4.0018147230148315e-001 2.3889663815498352e-001</leafValues></_>
        <_>
          <internalNodes>
            0 -1 36 -8390906 -248451306 -57214416 -265101774 -616235692
            -61540588 -192772480 -151522221</internalNodes>
          <leafValues>
            -3.3844092488288879e-001 2.4329479038715363e-001</leafValues></_>
        <_>
          <internalNodes>
            0 -1 169 -1158139664 -1073865731 -1 -73731 -1073758209
            -1073793025 -1073758209 -1078054168</internalNodes>
          <leafValues>
            -3.0816233158111572e-001 2.6420372724533081e-001</leafValues></_>
        <_>
          <internalNodes>
            0 -1 188 -98048000 -1859063296 875696688 296149026
            2087649288 -19377152 -1398231826 -330302449</internalNodes>
          <leafValues>
            -3.0384621024131775e-001 2.4453893303871155e-001</leafValues></_>
        <_>
          <internalNodes>
            0 -1 56 -633113741 -8701065 -71352453 2079792946 2138991463
            2133932919 -75534473 -1665</internalNodes>
          <leafValues>
            -2.5845077633857727e-001 2.9070734977722168e-001</leafValues></_>
        <_>
          <internalNodes>
            0 -1 152 -539181124 -1141064976 -134365697 -270340 -214020
            -196808 -84934658 -1078460248</internalNodes>
          <leafValues>
            -3.3480203151702881e-001 2.2117358446121216e-001</leafValues></_>
        <_>
          <internalNodes>
            0 -1 220 -287313938 -2131034548 -47487312 -253497374
            -571800136 1089789168 -457182056 -251658305</internalNodes>
          <leafValues>
            -2.6909789443016052e-001 2.8129193186759949e-001</leafValues></_>
        <_>
          <internalNodes>
            0 -1 8 -893195270 -336793609 1333063671 233843554 -269447178
            -268570674 -268633089 1734690659</internalNodes>
          <leafValues>
            -3.4924897551536560e-001 2.2033311426639557e-001</leafValues></_>
        <_>
          <internalNodes>
            0 -1 156 -260688 -134465830 -553664774 -1073758210 -231696
            -1112528992 -50246 -1078320480</internalNodes>
          <leafValues>
            -3.1180518865585327e-001 2.1007440984249115e-001</leafValues></_>
        <_>
          <internalNodes>
            0 -1 93 -386131792 -1074123649 -49157 -1073796422 -476434717
            805255797 -268484613 -271900614</internalNodes>
          <leafValues>
            -2.6689389348030090e-001 2.5184547901153564e-001</leafValues></_></weakClassifiers></_>
    <!-- stage 7 -->
    <_>
      <maxWeakCount>20</maxWeakCount>
      <stageThreshold>-1.5293879508972168e+000</stageThreshold>
      <weakClassifiers>
        <_>
          <internalNodes>
            0 -1 53 2138472439 -294913 -8421377 -4506693 2138537983
            -8945673 -32769 -32897</internalNodes>
          <leafValues>
            -3.6712378263473511e-001 3.5937455296516418e-001</leafValues></_>
        <_>
          <internalNodes>
            0 -1 110 -131073 -131073 -131073 -131073 -131073 -1 -656385
            -152902</internalNodes>
          <leafValues>
            -2.9510679841041565e-001 4.0179729461669922e-001</leafValues></_>
        <_>
          <internalNodes>
            0 -1 174 -2732 1954021239 -8388737 -46137473 -16777508
            -33554433 -1191249222 -1195376641</internalNodes>
          <leafValues>
            -2.6989156007766724e-001 3.6898782849311829e-001</leafValues></_>
        <_>
          <internalNodes>
            0 -1 227 -1994399745 721418237 534772223 -1342178561
            799981567 737147899 254475263 -6291457</internalNodes>
          <leafValues>
            -2.9762861132621765e-001 3.3011463284492493e-001</leafValues></_>
        <_>
          <internalNodes>
            0 -1 22 -286342422 -270340374 -2114318589 -6159840
            -809104216 -373765 -269545845 -269532669</internalNodes>
          <leafValues>
            -2.8406250476837158e-001 3.1057751178741455e-001</leafValues></_>
        <_>
          <internalNodes>
            0 -1 41 -395120646 -65537 -4530177 -1906720 5260788 -1042443
            1869623295 1869889651</internalNodes>
          <leafValues>
            -3.7382593750953674e-001 2.4550990760326385e-001</leafValues></_>
        <_>
          <internalNodes>
            0 -1 177 -1157840900 -114817 -132097 -1073758209 -1073758209
            -1073758209 -1073860098 -1078285638</internalNodes>
          <leafValues>
            -2.8546449542045593e-001 2.7242520451545715e-001</leafValues></_>
        <_>
          <internalNodes>
            0 -1 59 -269549569 -327686 -268439553 -5392 -941096961
            -262657 -268480513 -47369</internalNodes>
          <leafValues>
            -1.5973405539989471e-001 4.5266810059547424e-001</leafValues></_>
        <_>
          <internalNodes>
            0 -1 186 -1575916 -1627349232 1410347024 1879109648
            -453452656 -54758088 -1135289220 -53150474</internalNodes>
          <leafValues>
            -4.2428234219551086e-001 2.0258180797100067e-001</leafValues></_>
        <_>
          <internalNodes>
            0 -1 167 -33558316 271873028 -1224753923 836763101 -34603780
            150928637 -654340868 682359999</internalNodes>
          <leafValues>
            -3.6955115199089050e-001 1.6891463100910187e-001</leafValues></_>
        <_>
          <internalNodes>
            0 -1 64 -823723010 -1119270 -67702789 -1477311966 1079048181
            -136941899 -302546945 1744258659</internalNodes>
          <leafValues>
            -3.0060732364654541e-001 2.2881545126438141e-001</leafValues></_>
        <_>
          <internalNodes>
            0 -1 49 -16818881 -1120452745 -33604802 -5652549 -1090553020
            -231 -50513888 -527273</internalNodes>
          <leafValues>
            -2.6174822449684143e-001 2.5720596313476563e-001</leafValues></_>
        <_>
          <internalNodes>
            0 -1 131 -10538727 -9440203 2147220959 -39321939 -69354691
            -66051 1027422639 674233791</internalNodes>
          <leafValues>
            -2.6000285148620605e-001 2.6302742958068848e-001</leafValues></_>
        <_>
          <internalNodes>
            0 -1 165 951628784 -1145554200 2008299773 -1141006388
            -1164132872 -1426544176 -1074216962 -1079498584</internalNodes>
          <leafValues>
            -3.5335955023765564e-001 1.8161022663116455e-001</leafValues></_>
        <_>
          <internalNodes>
            0 -1 205 -790371710 -750669884 -1566529870 -1333600062
            -781746176 -716872636 -168296753 -181936189</internalNodes>
          <leafValues>
            -2.3237730562686920e-001 2.6451265811920166e-001</leafValues></_>
        <_>
          <internalNodes>
            0 -1 117 -57344012 -6489156 -2294787 -2343984 -162203404
            -999427 -1073954817 -1360516392</internalNodes>
          <leafValues>
            -2.5503057241439819e-001 2.3332263529300690e-001</leafValues></_>
        <_>
          <internalNodes>
            0 -1 212 -823144972 -537558300 -572658187 1574763376
            217681144 -1468100936 1760874748 -924857157</internalNodes>
          <leafValues>
            -2.2903850674629211e-001 2.5599351525306702e-001</leafValues></_>
        <_>
          <internalNodes>
            0 -1 87 -1071449358 -926764384 -1040206350 -705182992 306162
            -2140493626 1207429107 -993017630</internalNodes>
          <leafValues>
            -2.3116359114646912e-001 2.4774996936321259e-001</leafValues></_>
        <_>
          <internalNodes>
            0 -1 78 16722687 838810607 400309247 -1073759233 1979694591
            939473661 -539181060 1053569244</internalNodes>
          <leafValues>
            -4.1338837146759033e-001 1.3212689757347107e-001</leafValues></_>
        <_>
          <internalNodes>
            0 -1 84 -67169765 929771875 -1677771077 -1078255458
            -67161488 1027551318 -21269646 -67161413</internalNodes>
          <leafValues>
            -2.3233598470687866e-001 2.4804276227951050e-001</leafValues></_></weakClassifiers></_>
    <!-- stage 8 -->
    <_>
      <maxWeakCount>17</maxWeakCount>
      <stageThreshold>-1.5358909368515015e+000</stageThreshold>
      <weakClassifiers>
        <_>
          <internalNodes>
            0 -1 226 -1073750529 251657727 -1075838977 -1358954754 -1
            805306367 -1 -1</internalNodes>
          <leafValues>
            -3.8396891951560974e-001 4.2152661085128784e-001</leafValues></_>
        <_>
          <internalNodes>
            0 -1 31 -1 -1 -9 -854158 -34817 -526361 -2057 -134752777</internalNodes>
          <leafValues>
            -2.4699483811855316e-001 5.3387492895126343e-001</leafValues></_>
        <_>
          <internalNodes>
            0 -1 96 -131073 -131073 -67239937 -131073 -131075 -147457
            -131073 -152918</internalNodes>
          <leafValues>
            -2.6586908102035522e-001 4.0319752693176270e-001</leafValues></_>
        <_>
          <internalNodes>
            0 -1 158 -8432620 -10494179 -67109089 -8388836 -58754036
            -8388737 -117512148 -529596902</internalNodes>
          <leafValues>
            -3.8511523604393005e-001 2.4208416044712067e-001</leafValues></_>
        <_>
          <internalNodes>
            0 -1 48 1433877490 -1 1065304063 2147483647 2010594290
            2147336190 2147450879 2012492466</internalNodes>
          <leafValues>
            -4.5112490653991699e-001 1.9805794954299927e-001</leafValues></_>
        <_>
          <internalNodes>
            0 -1 63 -269488145 195489546 -285241600 -337124606
            -151519265 -1880098329 1448595264 -404228253</internalNodes>
          <leafValues>
            -2.7295526862144470e-001 3.0779966711997986e-001</leafValues></_>
        <_>
          <internalNodes>
            0 -1 103 -8405220 271955767 -1073889347 -4325505 -21060
            -1107313217 -318903124 750632767</internalNodes>
          <leafValues>
            -3.4946218132972717e-001 2.2820630669593811e-001</leafValues></_>
        <_>
          <internalNodes>
            0 -1 225 -1077936641 66059191 -1073746438 -1316953110 -4161
            973078458 -2105875 -255852549</internalNodes>
          <leafValues>
            -2.0625144243240356e-001 3.4955221414566040e-001</leafValues></_>
        <_>
          <internalNodes>
            0 -1 67 -2 -81922 -196610 -196610 -4100 -303288404 -4
            801914376</internalNodes>
          <leafValues>
            -4.6819409728050232e-001 1.4733126759529114e-001</leafValues></_>
        <_>
          <internalNodes>
            0 -1 55 1597996927 2138780543 -547390601 -297285 -16875649
            -294929 2134867456 -10486955</internalNodes>
          <leafValues>
            -2.4113424122333527e-001 2.9911848902702332e-001</leafValues></_>
        <_>
          <internalNodes>
            0 -1 122 -84394896 -1090764801 -147523 -1073890321 -245763
            -33800748 -54771780 705183502</internalNodes>
          <leafValues>
            -4.0003594756126404e-001 1.6673286259174347e-001</leafValues></_>
        <_>
          <internalNodes>
            0 -1 201 -5494 340066186 547793418 543339234 -562626560
            1413490005 -1570797330 -176685089</internalNodes>
          <leafValues>
            -2.7568200230598450e-001 2.5013294816017151e-001</leafValues></_>
        <_>
          <internalNodes>
            0 -1 129 611598324 -1073963009 2011037695 -49153 -4325379
            -196615 -1073758209 1052517168</internalNodes>
          <leafValues>
            -4.0729922056198120e-001 1.5536060929298401e-001</leafValues></_>
        <_>
          <internalNodes>
            0 -1 220 -268439569 1088876458 -402919452 -722801180
            -855683600 1078259496 -722220016 -1057489037</internalNodes>
          <leafValues>
            -2.6037821173667908e-001 2.3647104203701019e-001</leafValues></_>
        <_>
          <internalNodes>
            0 -1 12 -970006302 -2145326366 150359792 497110480
            -923808514 -397742344 4249744 -865862413</internalNodes>
          <leafValues>
            -3.0109146237373352e-001 1.9820335507392883e-001</leafValues></_>
        <_>
          <internalNodes>
            0 -1 124 269758964 1022932988 536723423 -1074020865
            -167903235 -33767425 -18075715 738208296</internalNodes>
          <leafValues>
            -3.9198294281959534e-001 1.6658399999141693e-001</leafValues></_>
        <_>
          <internalNodes>
            0 -1 37 -1075855557 -81592557 -5098183 -73253582 255800883
            1512269110 1855926442 1172718770</internalNodes>
          <leafValues>
            -3.3788961172103882e-001 1.5831543505191803e-001</leafValues></_></weakClassifiers></_>
    <!-- stage 9 -->
    <_>
      <maxWeakCount>24</maxWeakCount>
      <stageThreshold>-1.5265989303588867e+000</stageThreshold>
      <weakClassifiers>
        <_>
          <internalNodes>
            0 -1 45 -4489217 1071595455 -536903681 -32965 1061126015
            2147450879 2147450879 2147219323</internalNodes>
          <leafValues>
            -4.2553135752677917e-001 2.2808194160461426e-001</leafValues></_>
        <_>
          <internalNodes>
            0 -1 91 1431632892 -167904514 1608383487 -1201153 -2245638
            -2311432 2147466143 1057827466</internalNodes>
          <leafValues>
            -3.6211735010147095e-001 2.7401816844940186e-001</leafValues></_>
        <_>
          <internalNodes>
            0 -1 74 -290783234 -70658 -131073 -711952 1156904951 -22561
            1744306175 2146911477</internalNodes>
          <leafValues>
            -3.5059788823127747e-001 2.5734061002731323e-001</leafValues></_>
        <_>
          <internalNodes>
            0 -1 108 886365652 1037957589 1071609309 -1107296257
            -1124073475 -34080257 1023359228 687864047</internalNodes>
          <leafValues>
            -3.4515208005905151e-001 2.5603371858596802e-001</leafValues></_>
        <_>
          <internalNodes>
            0 -1 185 -6142 -13373533 716941867 -1146903902 -599851000
            -3417076 -1397822310 -11536373</internalNodes>
          <leafValues>
            -2.8169608116149902e-001 2.9436865448951721e-001</leafValues></_>
        <_>
          <internalNodes>
            0 -1 221 -12289 -1593841689 -4356 -521212246 -268448515
            13291449 -302002948 -520355841</internalNodes>
          <leafValues>
            -2.9622110724449158e-001 2.5597080588340759e-001</leafValues></_>
        <_>
          <internalNodes>
            0 -1 128 613432692 -33771523 -1 -188417 -268649475 -156674
            -1073889281 731381792</internalNodes>
          <leafValues>
            -4.0341469645500183e-001 1.9046910107135773e-001</leafValues></_>
        <_>
          <internalNodes>
            0 -1 75 -777002326 -1045984606 -2114256864 -236212094
            -179309137 -2004105080 1404563650 -1043337013</internalNodes>
          <leafValues>
            -2.3047482967376709e-001 3.0821815133094788e-001</leafValues></_>
        <_>
          <internalNodes>
            0 -1 28 -589826 -627907854 -422117518 32696930 -50935300
            -859511724 -321851824 -999040173</internalNodes>
          <leafValues>
            -3.2242316007614136e-001 2.0479342341423035e-001</leafValues></_>
        <_>
          <internalNodes>
            0 -1 198 209704959 -1946159625 -1076363265 -1344276481
            -1342177281 234862591 66039039 -1342177281</internalNodes>
          <leafValues>
            -2.6306408643722534e-001 2.4686743319034576e-001</leafValues></_>
        <_>
          <internalNodes>
            0 -1 60 -286347562 -364546 -436949603 -1342919168 -938405891
            -1140932693 -287502417 1330998851</internalNodes>
          <leafValues>
            -3.0883577466011047e-001 2.2512602806091309e-001</leafValues></_>
        <_>
          <internalNodes>
            0 -1 97 -487047184 -68012034 -49160 -1074250830 -1342226433
            -114697 -134268935 -268762952</internalNodes>
          <leafValues>
            -2.6276680827140808e-001 2.1920743584632874e-001</leafValues></_>
        <_>
          <internalNodes>
            0 -1 175 -122678096 -67975440 -537052675 -71780104 -16455
            -75331 -1342330438 -1465778144</internalNodes>
          <leafValues>
            -3.0787509679794312e-001 1.7969992756843567e-001</leafValues></_>
        <_>
          <internalNodes>
            0 -1 199 -732704686 1431435802 -1571553774 1879307130
            -97005504 -598257590 -262999358 -262931902</internalNodes>
          <leafValues>
            -2.3006437718868256e-001 2.4238353967666626e-001</leafValues></_>
        <_>
          <internalNodes>
            0 -1 19 -825299350 -536870922 -823298049 -537818144
            477888648 -595591489 -301990403 -638201867</internalNodes>
          <leafValues>
            -2.7917110919952393e-001 1.8006554245948792e-001</leafValues></_>
        <_>
          <internalNodes>
            0 -1 136 2136259580 -475651 -1250033793 -8585219 -12780548
            -81923 -196865 -1363662512</internalNodes>
          <leafValues>
            -2.9762315750122070e-001 1.7624475061893463e-001</leafValues></_>
        <_>
          <internalNodes>
            0 -1 65 -1064591328 -1920357234 336814080 -572133058
            -1001537044 -928920078 79782024 -1060118390</internalNodes>
          <leafValues>
            -2.3364177346229553e-001 2.1904379129409790e-001</leafValues></_>
        <_>
          <internalNodes>
            0 -1 149 -724258896 -1296460 -2097155 -25156 -285433922
            -4676882 -1119236 -1430648288</internalNodes>
          <leafValues>
            -2.5990477204322815e-001 1.9753749668598175e-001</leafValues></_>
        <_>
          <internalNodes>
            0 -1 39 -105119950 -1677399261 -424169668 -1145901518
            -925666028 1273264689 -453611520 -456666046</internalNodes>
          <leafValues>
            -2.9337072372436523e-001 1.6310109198093414e-001</leafValues></_>
        <_>
          <internalNodes>
            0 -1 164 2063119316 -1076314204 -182273 -17414 -1073956680
            -1359200774 -1090708232 -1426120534</internalNodes>
          <leafValues>
            -2.1021839976310730e-001 2.3113511502742767e-001</leafValues></_>
        <_>
          <internalNodes>
            0 -1 157 -102761123 -604375619 -526401 -1080512198 -35656
            -67108937 -16794950 -1171063502</internalNodes>
          <leafValues>
            -1.5911695361137390e-001 3.0647340416908264e-001</leafValues></_>
        <_>
          <internalNodes>
            0 -1 192 -68157444 -1847007984 -37751052 -1136591056
            -508115544 -938287664 -323727360 -1069026270</internalNodes>
          <leafValues>
            -2.8560659289360046e-001 1.7070101201534271e-001</leafValues></_>
        <_>
          <internalNodes>
            0 -1 214 -520697344 -1204791772 1386266160 287370544
            1080344704 -568041726 -1066100024 -2143031573</internalNodes>
          <leafValues>
            -2.4505899846553802e-001 1.9181326031684875e-001</leafValues></_>
        <_>
          <internalNodes>
            0 -1 130 502553972 1073495797 2013167615 -1073824771
            -1174570123 -132097 -1073923201 687616320</internalNodes>
          <leafValues>
            -3.8933846354484558e-001 1.1786552518606186e-001</leafValues></_></weakClassifiers></_>
    <!-- stage 10 -->
    <_>
      <maxWeakCount>27</maxWeakCount>
      <stageThreshold>-1.5570211410522461e+000</stageThreshold>
      <weakClassifiers>
        <_>
          <internalNodes>
            0 -1 224 -1 1073741823 -1073741825 -1073741826 -1 1073741823
            -268435457 2147483647</internalNodes>
          <leafValues>
            -2.9437229037284851e-001 3.7252682447433472e-001</leafValues></_>
        <_>
          <internalNodes>
            0 -1 163 -12583408 -1113608658 -1111510851 -1079007569 -68
            -1107297092 -1465341784 -1431573845</internalNodes>
          <leafValues>
            -2.7547532320022583e-001 3.0552679300308228e-001</leafValues></_>
        <_>
          <internalNodes>
            0 -1 40 -1074003969 -4980937 -41093 -786637 1065320311
            2147450871 1072398335 2008237875</internalNodes>
          <leafValues>
            -3.9013591408729553e-001 2.1158199012279510e-001</leafValues></_>
        <_>
          <internalNodes>
            0 -1 100 -16624 893140798 -33701955 -1080180801 -18500
            -231427 -50577412 741211967</internalNodes>
          <leafValues>
            -3.7022784352302551e-001 2.0761637389659882e-001</leafValues></_>
        <_>
          <internalNodes>
            0 -1 168 1039660124 360054109 1056947967 939523839
            -1375732483 -1930433315 218078463 150863103</internalNodes>
          <leafValues>
            -3.4870195388793945e-001 2.1492519974708557e-001</leafValues></_>
        <_>
          <internalNodes>
            0 -1 76 -236197726 -1987403126 -571277312 -577815965
            -575155319 -2004841513 -723303296 -975699969</internalNodes>
          <leafValues>
            -2.9861077666282654e-001 2.1634198725223541e-001</leafValues></_>
        <_>
          <internalNodes>
            0 -1 102 -134348803 -538050561 -131073 -131073 -131076 -4097
            -1 -1073894726</internalNodes>
          <leafValues>
            -2.1393617987632751e-001 2.9639652371406555e-001</leafValues></_>
        <_>
          <internalNodes>
            0 -1 85 2145345407 -4833318 -49153 -1073791014 -1089921
            -13208713 -337743873 -303573</internalNodes>
          <leafValues>
            -2.3328928649425507e-001 2.6974201202392578e-001</leafValues></_>
        <_>
          <internalNodes>
            0 -1 144 -151249708 -248012 -245761 -163971 -67354945 -33793
            -336838913 -1154990293</internalNodes>
          <leafValues>
            -2.7414020895957947e-001 2.2497242689132690e-001</leafValues></_>
        <_>
          <internalNodes>
            0 -1 200 -92282878 1347680004 548546146 6461098 -229179392
            1111515200 -533757366 1883502155</internalNodes>
          <leafValues>
            -3.4508138895034790e-001 1.8140515685081482e-001</leafValues></_>
        <_>
          <internalNodes>
            0 -1 69 1929327346 -2113537 1073184767 -131073 -136331265
            -6374500 -1 -3278086</internalNodes>
          <leafValues>
            -1.5448665618896484e-001 3.9848792552947998e-001</leafValues></_>
        <_>
          <internalNodes>
            0 -1 166 -13057 149359350 -587281156 301788412 -35664675
            452965565 -318908196 52300</internalNodes>
          <leafValues>
            -4.6801179647445679e-001 1.2545830011367798e-001</leafValues></_>
        <_>
          <internalNodes>
            0 -1 20 -1063064862 -1560240014 10542293 89211024 -262485816
            -1401755165 -530070824 -839385117</internalNodes>
          <leafValues>
            -2.6534497737884521e-001 2.0073920488357544e-001</leafValues></_>
        <_>
          <internalNodes>
            0 -1 79 -185093960 -254482220 889043199 -1107445507
            -776290307 -258429780 -658437 550300330</internalNodes>
          <leafValues>
            -2.8602156043052673e-001 1.8659220635890961e-001</leafValues></_>
        <_>
          <internalNodes>
            0 -1 190 -168297584 -181486444 -256516780 -575473936
            -52568136 -18382928 538975786 1210809719</internalNodes>
          <leafValues>
            -2.8206089138984680e-001 1.6460683941841125e-001</leafValues></_>
        <_>
          <internalNodes>
            0 -1 4 -2100646230 -1880094754 -337679361 298846659
            -268509217 -541396995 -278868598 1465993024</internalNodes>
          <leafValues>
            -3.6062568426132202e-001 1.4367723464965820e-001</leafValues></_>
        <_>
          <internalNodes>
            0 -1 178 -1094778896 -1073790977 -1076969473 -1073741827
            -1140867140 -1073840129 -1090633986 -1426156870</internalNodes>
          <leafValues>
            -1.9816252589225769e-001 2.4504359066486359e-001</leafValues></_>
        <_>
          <internalNodes>
            0 -1 217 -268457988 265228126 -268976321 1306463932
            -1931866884 -1895949095 -1929523972 218091005</internalNodes>
          <leafValues>
            -2.9025641083717346e-001 1.6100825369358063e-001</leafValues></_>
        <_>
          <internalNodes>
            0 -1 26 1086375922 -81937 394244095 -1076359240 619988464
            -68047895 -338337797 1330004306</internalNodes>
          <leafValues>
            -2.9071110486984253e-001 1.5869790315628052e-001</leafValues></_>
        <_>
          <internalNodes>
            0 -1 55 -149192897 992821105 1505590835 -14714883 -315777
            -1082180227 -17096944 -81793017</internalNodes>
          <leafValues>
            -1.9728679955005646e-001 2.4104294180870056e-001</leafValues></_>
        <_>
          <internalNodes>
            0 -1 209 -99188734 -546770528 1677889080 1368438784
            -362673144 -16496300 -1284247845 -213390846</internalNodes>
          <leafValues>
            -2.1656560897827148e-001 2.1343243122100830e-001</leafValues></_>
        <_>
          <internalNodes>
            0 -1 81 -16900226 1069167411 -1242090829 -1076219080
            1878228599 1995380599 -201621516 -134757214</internalNodes>
          <leafValues>
            -2.1580639481544495e-001 2.1753279864788055e-001</leafValues></_>
        <_>
          <internalNodes>
            0 -1 204 -76045654 -78417938 183135782 1342371874 -18938870
            -76062132 -226755926 -212608446</internalNodes>
          <leafValues>
            -2.0034493505954742e-001 2.1428258717060089e-001</leafValues></_>
        <_>
          <internalNodes>
            0 -1 150 -170380880 -239873 2146664447 -6701831 -1073961026
            -4355153 -134238210 -1142019926</internalNodes>
          <leafValues>
            -2.0136156678199768e-001 2.1746462583541870e-001</leafValues></_>
        <_>
          <internalNodes>
            0 -1 137 550516572 -216196 996013049 -485383 -16994308
            -1078362180 -269374468 797443184</internalNodes>
          <leafValues>
            -4.2904251813888550e-001 1.0296198725700378e-001</leafValues></_>
        <_>
          <internalNodes>
            0 -1 216 -421549580 -790324272 -454040207 -2071925536
            -1057013572 -926228112 -253559560 -1060910958</internalNodes>
          <leafValues>
            -2.4633629620075226e-001 1.7303839325904846e-001</leafValues></_>
        <_>
          <internalNodes>
            0 -1 101 -2111788112 -1130756 -1409979649 -1079641612
            -1563246594 -85136466 -1109000245 -1967324448</internalNodes>
          <leafValues>
            -2.7259460091590881e-001 1.5261012315750122e-001</leafValues></_></weakClassifiers></_>
    <!-- stage 11 -->
    <_>
      <maxWeakCount>29</maxWeakCount>
      <stageThreshold>-1.5055073499679565e+000</stageThreshold>
      <weakClassifiers>
        <_>
          <internalNodes>
            0 -1 44 -1 -1 -32769 -1 -32769 -65 -49154 -1</internalNodes>
          <leafValues>
            -2.2386214137077332e-001 5.2755904197692871e-001</leafValues></_>
        <_>
          <internalNodes>
            0 -1 112 1953888255 -4097 838709247 -134217729 -1 -1 -1 -2</internalNodes>
          <leafValues>
            -1.7009975016117096e-001 5.0608026981353760e-001</leafValues></_>
        <_>
          <internalNodes>
            0 -1 88 -336856086 -1953846622 1207246848 -773250560
            1141178346 209770126 1204254434 1204286147</internalNodes>
          <leafValues>
            -3.4153920412063599e-001 2.0813749730587006e-001</leafValues></_>
        <_>
          <internalNodes>
            0 -1 197 -1073750529 268385789 -1342439425 2147483647
            1073725439 805306367 -1073745921 704638207</internalNodes>
          <leafValues>
            -3.3076789975166321e-001 2.2191338241100311e-001</leafValues></_>
        <_>
          <internalNodes>
            0 -1 173 -257796 -67158017 -50241 -49153 -4308998 -17007105
            -114753 -1145423174</internalNodes>
          <leafValues>
            -2.9294490814208984e-001 2.4499325454235077e-001</leafValues></_>
        <_>
          <internalNodes>
            0 -1 139 -184552332 336606228 -37756931 1035857725 -3
            -33752129 -4152 137952876</internalNodes>
          <leafValues>
            -3.8670080900192261e-001 1.6929996013641357e-001</leafValues></_>
        <_>
          <internalNodes>
            0 -1 2 -1911881734 260229026 -1414533409 -1079049566
            252379131 -11603969 -1376985092 -823212400</internalNodes>
          <leafValues>
            -3.0300101637840271e-001 1.7798441648483276e-001</leafValues></_>
        <_>
          <internalNodes>
            0 -1 30 -2162722 -541918718 -269426858 1165164288 -11108542
            -923642108 -17537200 -1001331390</internalNodes>
          <leafValues>
            -3.8126555085182190e-001 1.5495926141738892e-001</leafValues></_>
        <_>
          <internalNodes>
            0 -1 104 271850964 -1208565761 -1612890115 -1073889287
            -1074446340 -672779 -180241 193462272</internalNodes>
          <leafValues>
            -3.7658628821372986e-001 1.4052246510982513e-001</leafValues></_>
        <_>
          <internalNodes>
            0 -1 206 -485252990 -619601118 -2002777952 -1291804510
            -1003289600 -562949039 -297877366 -76025581</internalNodes>
          <leafValues>
            -2.3098812997341156e-001 2.3457884788513184e-001</leafValues></_>
        <_>
          <internalNodes>
            0 -1 21 -4194433 2134014770 -13566092 2133865264 -268640258
            -283890828 -810483730 2066940723</internalNodes>
          <leafValues>
            -2.7575001120567322e-001 1.9727379083633423e-001</leafValues></_>
        <_>
          <internalNodes>
            0 -1 70 1547722708 -5081130 2147180539 1066539826 2137030650
            -5997057 -1081473 732004210</internalNodes>
          <leafValues>
            -3.4290787577629089e-001 1.3759692013263702e-001</leafValues></_>
        <_>
          <internalNodes>
            0 -1 213 -536100864 -1690107340 -2144320976 288417808
            -1072003960 -866955945 -1594040070 -67377409</internalNodes>
          <leafValues>
            -1.7996250092983246e-001 2.6614457368850708e-001</leafValues></_>
        <_>
          <internalNodes>
            0 -1 227 199219707 805298175 72346879 -1896940550 1042997243
            800050138 235577343 -863242293</internalNodes>
          <leafValues>
            -2.4018932878971100e-001 1.9859768450260162e-001</leafValues></_>
        <_>
          <internalNodes>
            0 -1 115 -38292712 538224388 -120217667 -1115848705 -2228804
            -1174553602 -1157841236 679345711</internalNodes>
          <leafValues>
            -3.1477805972099304e-001 1.5083168447017670e-001</leafValues></_>
        <_>
          <internalNodes>
            0 -1 177 -1090733388 -1075957825 -153092097 -1073807553
            -1074906117 -1342260229 -1090635522 -1163222870</internalNodes>
          <leafValues>
            -2.3027777671813965e-001 2.0566256344318390e-001</leafValues></_>
        <_>
          <internalNodes>
            0 -1 73 -508562693 -139484222 1157627632 -774942590
            -682888966 -856761118 1413869778 -707800857</internalNodes>
          <leafValues>
            -1.4575143158435822e-001 3.1806063652038574e-001</leafValues></_>
        <_>
          <internalNodes>
            0 -1 35 855061363 -16385 1056192509 -999427 2011641718
            -536923139 2145206223 2010397456</internalNodes>
          <leafValues>
            -3.8654142618179321e-001 1.1840777844190598e-001</leafValues></_>
        <_>
          <internalNodes>
            0 -1 215 -858266320 1438944544 -44173507 1437719700
            202375200 -1941691372 605151480 -1060118334</internalNodes>
          <leafValues>
            -2.4707809090614319e-001 1.7714831233024597e-001</leafValues></_>
        <_>
          <internalNodes>
            0 -1 5 -286605510 721092606 -272715954 -1896313114 -2183199
            -101409795 -335737332 1291142151</internalNodes>
          <leafValues>
            -2.8629770874977112e-001 1.5047314763069153e-001</leafValues></_>
        <_>
          <internalNodes>
            0 -1 184 -16789428 -782378932 -126552472 1346763887
            -152137720 1565338180 -1572593110 844872206</internalNodes>
          <leafValues>
            -2.7031546831130981e-001 1.5273883938789368e-001</leafValues></_>
        <_>
          <internalNodes>
            0 -1 202 -1359237356 -822086093 787431102 -1224856010
            536806844 788492233 -1393619720 -533993440</internalNodes>
          <leafValues>
            -2.1989780664443970e-001 1.8477572500705719e-001</leafValues></_>
        <_>
          <internalNodes>
            0 -1 106 269492048 -229890 265756669 -1073889345 -1075737100
            -726290 -277504017 50332418</internalNodes>
          <leafValues>
            -3.3002772927284241e-001 1.2369190901517868e-001</leafValues></_>
        <_>
          <internalNodes>
            0 -1 11 -963721182 19040418 -876656551 -538635903
            -1001798484 -2002205047 -386072448 -939270133</internalNodes>
          <leafValues>
            -2.3289683461189270e-001 1.7654018104076385e-001</leafValues></_>
        <_>
          <internalNodes>
            0 -1 25 -1070889952 419594752 -1605621575 -172797952
            -2011541092 -1363243980 282660072 -304136166</internalNodes>
          <leafValues>
            -1.9491948187351227e-001 2.1468158066272736e-001</leafValues></_>
        <_>
          <internalNodes>
            0 -1 219 -9189393 155188183 -17039877 1969442912 -859372033
            1860984702 -522201860 -252968973</internalNodes>
          <leafValues>
            -1.3086014986038208e-001 2.8992828726768494e-001</leafValues></_>
        <_>
          <internalNodes>
            0 -1 0 -292558209 -1092750341 -672140802 -49884418 -74476096
            -319293592 -908795680 -2147429248</internalNodes>
          <leafValues>
            -1.9201768934726715e-001 2.0115453004837036e-001</leafValues></_>
        <_>
          <internalNodes>
            0 -1 80 1377809118 -83903234 1072545503 1040186879 -1
            -546180 2013265663 -1193416976</internalNodes>
          <leafValues>
            -1.4770849049091339e-001 2.6227861642837524e-001</leafValues></_>
        <_>
          <internalNodes>
            0 -1 147 -1678501776 -1174618115 -410627 -1073857092
            -538035469 2143190013 -114818 -1146482644</internalNodes>
          <leafValues>
            -2.7580809593200684e-001 1.4257580041885376e-001</leafValues></_></weakClassifiers></_>
    <!-- stage 12 -->
    <_>
      <maxWeakCount>33</maxWeakCount>
      <stageThreshold>-1.5016573667526245e+000</stageThreshold>
      <weakClassifiers>
        <_>
          <internalNodes>
            0 -1 179 1060306429 -1073741825 1073725439 -1073741825
            -1107321348 234876927 788475134 -1342177281</internalNodes>
          <leafValues>
            -3.5295617580413818e-001 2.4440303444862366e-001</leafValues></_>
        <_>
          <internalNodes>
            0 -1 43 -193 2132770615 -67158724 -40632521 -32921 -2134201
            -119587296 -168299405</internalNodes>
          <leafValues>
            -2.9627469182014465e-001 2.5714305043220520e-001</leafValues></_>
        <_>
          <internalNodes>
            0 -1 159 -8396963 1602191197 -1086357697 1060896543
            -33555204 -1 -83891542 -1170473413</internalNodes>
          <leafValues>
            -2.1326217055320740e-001 3.3655205368995667e-001</leafValues></_>
        <_>
          <internalNodes>
            0 -1 83 -364546 -884737 -32773 1069169522 -872415233 -819201
            -268472321 -323765</internalNodes>
          <leafValues>
            -2.0416104793548584e-001 3.1149551272392273e-001</leafValues></_>
        <_>
          <internalNodes>
            0 -1 135 -15749504 2131266696 -547356705 -35651585 -1
            -1090584577 -12796994 -109723713</internalNodes>
          <leafValues>
            -2.7018740773200989e-001 2.2132031619548798e-001</leafValues></_>
        <_>
          <internalNodes>
            0 -1 193 -4353 192661694 -20976387 1006348543 -850457348
            -1192496011 -50471684 536935644</internalNodes>
          <leafValues>
            -3.8841092586517334e-001 1.5529949963092804e-001</leafValues></_>
        <_>
          <internalNodes>
            0 -1 187 -16783734 -55640190 -1366380914 -1400706430
            1409418240 -582615796 -583532913 -585630881</internalNodes>
          <leafValues>
            -2.7598580718040466e-001 2.1593104302883148e-001</leafValues></_>
        <_>
          <internalNodes>
            0 -1 47 -757031950 -589833 2136486903 -167773441 -800014864
            -86753308 -771073 2135180228</internalNodes>
          <leafValues>
            -3.1270873546600342e-001 1.5468949079513550e-001</leafValues></_>
        <_>
          <internalNodes>
            0 -1 18 -890584350 33722018 585122016 1571886496 -588527382
            -1969029216 -522157944 -884736029</internalNodes>
          <leafValues>
            -2.8109639883041382e-001 1.7900747060775757e-001</leafValues></_>
        <_>
          <internalNodes>
            0 -1 134 -52677636 -33767939 -10616836 -212995 -999432
            -214019 -1262084 -1076089912</internalNodes>
          <leafValues>
            -2.4611793458461761e-001 2.0787116885185242e-001</leafValues></_>
        <_>
          <internalNodes>
            0 -1 198 -1459620097 -1342179329 1072611071 -1361051905
            1023410175 218097151 648756223 -809503745</internalNodes>
          <leafValues>
            -2.0178912580013275e-001 2.4264922738075256e-001</leafValues></_>
        <_>
          <internalNodes>
            0 -1 62 -269578498 -69638 -34295809 -68147230 1962346341
            -403357770 -269656065 1341484871</internalNodes>
          <leafValues>
            -3.1787836551666260e-001 1.4907808601856232e-001</leafValues></_>
        <_>
          <internalNodes>
            0 -1 38 -9 -822673698 -2697281 -806561054 1700009968
            -822843435 -202156033 -571945</internalNodes>
          <leafValues>
            -1.8821389973163605e-001 2.3998211324214935e-001</leafValues></_>
        <_>
          <internalNodes>
            0 -1 66 1373549566 -178915346 838085563 1037937386 -2752598
            -721371384 -69354578 21832330</internalNodes>
          <leafValues>
            -2.3671196401119232e-001 1.8610259890556335e-001</leafValues></_>
        <_>
          <internalNodes>
            0 -1 68 -1207976001 -84174 -543227913 -149913808 1063239547
            -1075953860 -1073758273 1067460506</internalNodes>
          <leafValues>
            -3.3346381783485413e-001 1.1386681348085403e-001</leafValues></_>
        <_>
          <internalNodes>
            0 -1 86 -1414875152 -638980 -1879068673 -1074426384
            122057212 -67436802 -1360032289 1341085173</internalNodes>
          <leafValues>
            -2.4065941572189331e-001 1.7238560318946838e-001</leafValues></_>
        <_>
          <internalNodes>
            0 -1 223 -269490177 148895710 -1346458026 -1560351130
            267341004 149711431 -184693539 1076100095</internalNodes>
          <leafValues>
            -2.8496548533439636e-001 1.4598013460636139e-001</leafValues></_>
        <_>
          <internalNodes>
            0 -1 89 -571488086 -911561686 1425212672 -773112160
            1170487232 -2139093018 1199010690 -974670149</internalNodes>
          <leafValues>
            -1.8862868845462799e-001 2.1202929317951202e-001</leafValues></_>
        <_>
          <internalNodes>
            0 -1 151 1065137148 1069029308 -1612884227 -1073923599
            794443708 -1074511876 -337068292 -1346686966</internalNodes>
          <leafValues>
            -2.2043800354003906e-001 1.7729012668132782e-001</leafValues></_>
        <_>
          <internalNodes>
            0 -1 94 1091133277 520765311 453984125 1073364746 1578786679
            1602189695 1329471327 1263238463</internalNodes>
          <leafValues>
            -2.7820238471031189e-001 1.4707386493682861e-001</leafValues></_>
        <_>
          <internalNodes>
            0 -1 210 -635191296 -215754958 674789168 1593849862
            1748632728 -21868911 -1368867138 16990226</internalNodes>
          <leafValues>
            -2.7660384774208069e-001 1.4044085144996643e-001</leafValues></_>
        <_>
          <internalNodes>
            0 -1 182 1540879187 1937239026 1987999346 1884487186
            1615266816 451561264 -84677438 -228131262</internalNodes>
          <leafValues>
            -2.1982091665267944e-001 1.7545755207538605e-001</leafValues></_>
        <_>
          <internalNodes>
            0 -1 118 824185684 -1090715651 1034534908 1072182235
            -1108338188 -741377 -1677980488 215483784</internalNodes>
          <leafValues>
            -3.9966154098510742e-001 9.4066195189952850e-002</leafValues></_>
        <_>
          <internalNodes>
            0 -1 93 -419692096 985540599 798825471 -1073796358
            -385929230 1069431655 -71614534 -268566496</internalNodes>
          <leafValues>
            -2.4584652483463287e-001 1.4651198685169220e-001</leafValues></_>
        <_>
          <internalNodes>
            0 -1 207 -269226976 -1073709272 2021291184 -704998912
            -834972271 1208548804 -912552792 -242486238</internalNodes>
          <leafValues>
            -1.8508522212505341e-001 1.9274283945560455e-001</leafValues></_>
        <_>
          <internalNodes>
            0 -1 105 -200707 -1245185 -674820 -1356023335 -1524740
            -285409281 -8540295 149695232</internalNodes>
          <leafValues>
            -4.7307750582695007e-001 7.8472651541233063e-002</leafValues></_>
        <_>
          <internalNodes>
            0 -1 75 -72373878 -645682550 1734555504 -168954896
            -314055250 210223266 1416974464 -739249518</internalNodes>
          <leafValues>
            -1.7218059301376343e-001 2.0738296210765839e-001</leafValues></_>
        <_>
          <internalNodes>
            0 -1 42 -621609038 -2965513 535879639 -269944837 1701842400
            -621725703 -270307329 804083575</internalNodes>
          <leafValues>
            -2.1337600052356720e-001 1.6655109822750092e-001</leafValues></_>
        <_>
          <internalNodes>
            0 -1 72 1929535287 1069252607 1599110003 2142779197
            2064280931 2138799935 -1155383696 -13959373</internalNodes>
          <leafValues>
            -2.3971399664878845e-001 1.4780281484127045e-001</leafValues></_>
        <_>
          <internalNodes>
            0 -1 29 -1061024046 -1613099081 535965618 1072696832
            -386603528 -860819568 2119552972 -816624117</internalNodes>
          <leafValues>
            -1.9572392106056213e-001 1.7688405513763428e-001</leafValues></_>
        <_>
          <internalNodes>
            0 -1 153 -1798032140 -115843 -1409318923 -1090736897
            -1342226435 -287310339 -1111670803 -1428282212</internalNodes>
          <leafValues>
            -2.4568805098533630e-001 1.3598698377609253e-001</leafValues></_>
        <_>
          <internalNodes>
            0 -1 1 -1928654693 453449459 -6910885 -1146118557
            -1670391557 -1879090308 -857007876 -1937186624</internalNodes>
          <leafValues>
            -1.8930882215499878e-001 1.7955408990383148e-001</leafValues></_>
        <_>
          <internalNodes>
            0 -1 179 -1400831422 1180819284 805053180 1874570968
            486366463 -1157650304 -1112560961 2058737508</internalNodes>
          <leafValues>
            -2.1734292805194855e-001 1.5961538255214691e-001</leafValues></_></weakClassifiers></_>
    <!-- stage 13 -->
    <_>
      <maxWeakCount>35</maxWeakCount>
      <stageThreshold>-1.4797245264053345e+000</stageThreshold>
      <weakClassifiers>
        <_>
          <internalNodes>
            0 -1 222 -4097 1073741823 -1073741825 -1073758214
            -1342181377 1040121598 -268435457 754974719</internalNodes>
          <leafValues>
            -4.0553274750709534e-001 1.6549463570117950e-001</leafValues></_>
        <_>
          <internalNodes>
            0 -1 114 -131073 -6145 -713174018 -129 -132097 -139329
            -131073 -152902</internalNodes>
          <leafValues>
            -2.5311756134033203e-001 2.6286816596984863e-001</leafValues></_>
        <_>
          <internalNodes>
            0 -1 148 -164 1350041431 -24577 897580927 -16778760
            -33554433 -1325614422 956301055</internalNodes>
          <leafValues>
            -2.9695284366607666e-001 2.1517202258110046e-001</leafValues></_>
        <_>
          <internalNodes>
            0 -1 52 -15565381 2147302719 2103393272 -2113603 -1078313097
            -2392065 -6407376 -1</internalNodes>
          <leafValues>
            -2.2883722186088562e-001 2.8157678246498108e-001</leafValues></_>
        <_>
          <internalNodes>
            0 -1 154 -1113588396 -713687267 1073740031 -1073741833
            -1107427844 -1107297825 754911484 -1409286513</internalNodes>
          <leafValues>
            -2.3818987607955933e-001 2.5658187270164490e-001</leafValues></_>
        <_>
          <internalNodes>
            0 -1 15 -16858386 -1885172222 -62929 1609761408 -73463670
            -268701765 -302317558 -13109</internalNodes>
          <leafValues>
            -2.4465382099151611e-001 2.1396671235561371e-001</leafValues></_>
        <_>
          <internalNodes>
            0 -1 140 -252709740 1412758556 -536945409 -1107821059
            -1258947331 -1124075265 754563327 679542783</internalNodes>
          <leafValues>
            -2.6493301987648010e-001 1.9965556263923645e-001</leafValues></_>
        <_>
          <internalNodes>
            0 -1 98 -1398227472 -1074085892 -1344958499 -1107452492
            515715069 -1107428355 -1073926147 251202844</internalNodes>
          <leafValues>
            -3.8905462622642517e-001 1.0513255000114441e-001</leafValues></_>
        <_>
          <internalNodes>
            0 -1 191 -536870913 -2105380 -1914708483 -36 -318780164
            -1126186500 -1996699396 13353199</internalNodes>
          <leafValues>
            -2.0455677807331085e-001 2.2457398474216461e-001</leafValues></_>
        <_>
          <internalNodes>
            0 -1 57 -119046605 -315397 -272664585 -1074054382 -17924481
            -92902538 -557875329 -8684749</internalNodes>
          <leafValues>
            -2.3264886438846588e-001 2.0222178101539612e-001</leafValues></_>
        <_>
          <internalNodes>
            0 -1 77 460570427 -1076846601 -1613305857 -581912585
            1065074679 -16385 1073725439 96764108</internalNodes>
          <leafValues>
            -2.7521923184394836e-001 1.7799177765846252e-001</leafValues></_>
        <_>
          <internalNodes>
            0 -1 205 -365712766 -214784342 -1440053078 -1327318334
            -145554432 -1123923708 -153880081 -143137981</internalNodes>
          <leafValues>
            -2.5889879465103149e-001 1.5770967304706573e-001</leafValues></_>
        <_>
          <internalNodes>
            0 -1 87 -897387798 -897539392 -856428046 -708316960
            1074131642 -939478846 1189597426 -993541438</internalNodes>
          <leafValues>
            -2.3509006202220917e-001 1.6753739118576050e-001</leafValues></_>
        <_>
          <internalNodes>
            0 -1 32 -2147465 -279134242 -8486921 -213121 1995716209
            -1210830852 -65537 2145201990</internalNodes>
          <leafValues>
            -2.4640855193138123e-001 1.6917522251605988e-001</leafValues></_>
        <_>
          <internalNodes>
            0 -1 120 268711413 1022640125 -1073940481 -1073889297
            2147341823 -1191399955 -1073994565 680275983</internalNodes>
          <leafValues>
            -2.5920075178146362e-001 1.5850554406642914e-001</leafValues></_>
        <_>
          <internalNodes>
            0 -1 208 -67121189 -606097590 -1050626 -245715454 -1054264
            -272044844 -67108904 -788480000</internalNodes>
          <leafValues>
            -1.6668863594532013e-001 2.3384442925453186e-001</leafValues></_>
        <_>
          <internalNodes>
            0 -1 82 -439722416 -5095430 2147434352 -1074120654
            -950112257 -33587419 -671121409 -974372604</internalNodes>
          <leafValues>
            -2.0985545217990875e-001 1.8229788541793823e-001</leafValues></_>
        <_>
          <internalNodes>
            0 -1 27 -926765326 -236474529 1303426932 419440128
            1082130928 -1796970369 -706361864 1094926342</internalNodes>
          <leafValues>
            -3.1409543752670288e-001 1.1519780755043030e-001</leafValues></_>
        <_>
          <internalNodes>
            0 -1 180 262133877 -1428169729 922725085 -1350719660
            -1093681927 234872747 536807166 -872427529</internalNodes>
          <leafValues>
            -2.1395498514175415e-001 1.7078436911106110e-001</leafValues></_>
        <_>
          <internalNodes>
            0 -1 65 -170147710 -928379732 1149059072 -3445 -184561491
            -1945465659 1702315400 -974134134</internalNodes>
          <leafValues>
            -1.7551355063915253e-001 2.1400213241577148e-001</leafValues></_>
        <_>
          <internalNodes>
            0 -1 176 -1682784776 -1167058768 1039146621 -442892
            515684860 -1363403596 -1162081096 -1409613590</internalNodes>
          <leafValues>
            -1.9430898129940033e-001 1.8393079936504364e-001</leafValues></_>
        <_>
          <internalNodes>
            0 -1 13 -827666726 -1221562766 16272119 500825937 -302461800
            -576652238 68204784 -272499085</internalNodes>
          <leafValues>
            -2.4188639223575592e-001 1.5112122893333435e-001</leafValues></_>
        <_>
          <internalNodes>
            0 -1 6 -831870464 -278482961 -1376382977 -1076232221
            -906293300 -1074729497 -538627076 1398144990</internalNodes>
          <leafValues>
            -2.6761269569396973e-001 1.3224288821220398e-001</leafValues></_>
        <_>
          <internalNodes>
            0 -1 71 1416682194 -2787601 1039433719 1073738751 -18940018
            -389 1005529823 2146399937</internalNodes>
          <leafValues>
            -1.7927524447441101e-001 1.9939087331295013e-001</leafValues></_>
        <_>
          <internalNodes>
            0 -1 195 -1 551612228 -67176771 -257296657 -104901059
            -60621503 -330569204 -130285733</internalNodes>
          <leafValues>
            -1.6833104193210602e-001 2.0892007648944855e-001</leafValues></_>
        <_>
          <internalNodes>
            0 -1 3 -892420098 -1762742306 -282994 -1898008962 -808552999
            -118064129 1876691084 1157579858</internalNodes>
          <leafValues>
            -2.3838588595390320e-001 1.4054712653160095e-001</leafValues></_>
        <_>
          <internalNodes>
            0 -1 218 -201333216 -1061885000 -19988752 -102238216
            -706222624 150533196 -186126208 -705694221</internalNodes>
          <leafValues>
            -1.7851135134696960e-001 1.8838919699192047e-001</leafValues></_>
        <_>
          <internalNodes>
            0 -1 17 -788332544 -1860140500 568286225 -713461535
            -33579844 -1936794202 -656637752 -927825918</internalNodes>
          <leafValues>
            -1.6950550675392151e-001 1.9157278537750244e-001</leafValues></_>
        <_>
          <internalNodes>
            0 -1 171 172777309 -1629552641 1314783231 533265301
            -1166229763 -1076232261 529285087 267296733</internalNodes>
          <leafValues>
            -2.8799620270729065e-001 1.1508520692586899e-001</leafValues></_>
        <_>
          <internalNodes>
            0 -1 95 -274530320 -608130334 -402654351 -707448512
            -2016350306 247377902 -134750297 -942692614</internalNodes>
          <leafValues>
            -1.4249454438686371e-001 2.2710447013378143e-001</leafValues></_>
        <_>
          <internalNodes>
            0 -1 116 64 -398545921 1089770032 -1405096259 -11747531
            -1921516689 -8857117 -59457588</internalNodes>
          <leafValues>
            -3.0894881486892700e-001 1.0437844693660736e-001</leafValues></_>
        <_>
          <internalNodes>
            0 -1 164 885788984 855129908 1274918911 -69256014 1006419960
            -24827144 -1140998468 -1364513622</internalNodes>
          <leafValues>
            -2.1407376229763031e-001 1.4712902903556824e-001</leafValues></_>
        <_>
          <internalNodes>
            0 -1 33 -558125265 976427815 -1275409658 573743202
            -489161466 -1118488555 -453851136 -734796254</internalNodes>
          <leafValues>
            -2.1287803351879120e-001 1.4587810635566711e-001</leafValues></_>
        <_>
          <internalNodes>
            0 -1 145 -69224876 6566293 -1233867723 1696591869 -184549754
            -1263536154 808593952 547618619</internalNodes>
          <leafValues>
            -2.8065076470375061e-001 1.1514524370431900e-001</leafValues></_>
        <_>
          <internalNodes>
            0 -1 211 -867707120 -543767116 1359103796 1362375984
            273155232 -123577865 809019820 1545853471</internalNodes>
          <leafValues>
            -2.1801573038101196e-001 1.4126758277416229e-001</leafValues></_></weakClassifiers></_></stages>
  <features>
    <_>
      <rect>
        0 0 1 1</rect></_>
    <_>
      <rect>
        0 0 1 2</rect></_>
    <_>
      <rect>
        0 0 3 2</rect></_>
    <_>
      <rect>
        0 0 4 1</rect></_>
    <_>
      <rect>
        0 0 4 3</rect></_>
    <_>
      <rect>
        0 0 5 1</rect></_>
    <_>
      <rect>
        0 0 6 2</rect></_>
    <_>
      <rect>
        0 1 4 1</rect></_>
    <_>
      <rect>
        0 1 5 2</rect></_>
    <_>
      <rect>
        0 2 2 5</rect></_>
    <_>
      <rect>
        0 2 5 1</rect></_>
    <_>
      <rect>
        0 3 2 2</rect></_>
    <_>
      <rect>
        0 3 2 3</rect></_>
    <_>
      <rect>
        0 3 2 4</rect></_>
    <_>
      <rect>
        0 3 2 5</rect></_>
    <_>
      <rect>
        0 3 3 2</rect></_>
    <_>
      <rect>
        0 3 4 4</rect></_>
    <_>
      <rect>
        0 4 1 1</rect></_>
    <_>
      <rect>
        0 4 2 2</rect></_>
    <_>
      <rect>
        0 4 4 3</rect></_>
    <_>
      <rect>
        0 5 2 2</rect></_>
    <_>
      <rect>
        0 5 2 5</rect></_>
    <_>
      <rect>
        0 5 3 1</rect></_>
    <_>
      <rect>
        0 5 3 5</rect></_>
    <_>
      <rect>
        0 5 5 1</rect></_>
    <_>
      <rect>
        0 6 1 1</rect></_>
    <_>
      <rect>
        0 6 5 1</rect></_>
    <_>
      <rect>
        0 7 4 1</rect></_>
    <_>
      <rect>
        0 8 2 2</rect></_>
    <_>
      <rect>
        0 8 4 1</rect></_>
    <_>
      <rect>
        0 9 2 2</rect></_>
    <_>
      <rect>
        0 10 2 2</rect></_>
    <_>
      <rect>
        0 10 6 3</rect></_>
    <_>
      <rect>
        0 11 1 1</rect></_>
    <_>
      <rect>
        0 11 2 3</rect></_>
    <_>
      <rect>
        0 11 6 3</rect></_>
    <_>
      <rect>
        0 12 1 1</rect></_>
    <_>
      <rect>
        0 12 2 2</rect></_>
    <_>
      <rect>
        0 12 3 1</rect></_>
    <_>
      <rect>
        0 13 1 1</rect></_>
    <_>
      <rect>
        0 13 2 2</rect></_>
    <_>
      <rect>
        0 13 4 1</rect></_>
    <_>
      <rect>
        0 13 5 1</rect></_>
    <_>
      <rect>
        0 14 1 1</rect></_>
    <_>
      <rect>
        0 14 1 2</rect></_>
    <_>
      <rect>
        0 14 2 2</rect></_>
    <_>
      <rect>
        0 14 4 1</rect></_>
    <_>
      <rect>
        0 14 6 1</rect></_>
    <_>
      <rect>
        0 14 6 2</rect></_>
    <_>
      <rect>
        0 15 1 1</rect></_>
    <_>
      <rect>
        0 15 3 1</rect></_>
    <_>
      <rect>
        0 15 4 1</rect></_>
    <_>
      <rect>
        0 16 1 1</rect></_>
    <_>
      <rect>
        0 16 3 1</rect></_>
    <_>
      <rect>
        0 16 5 1</rect></_>
    <_>
      <rect>
        0 17 1 1</rect></_>
    <_>
      <rect>
        0 17 2 1</rect></_>
    <_>
      <rect>
        0 17 3 1</rect></_>
    <_>
      <rect>
        0 17 4 1</rect></_>
    <_>
      <rect>
        1 1 3 1</rect></_>
    <_>
      <rect>
        1 1 5 1</rect></_>
    <_>
      <rect>
        1 2 3 1</rect></_>
    <_>
      <rect>
        1 2 5 1</rect></_>
    <_>
      <rect>
        1 3 2 1</rect></_>
    <_>
      <rect>
        1 3 4 1</rect></_>
    <_>
      <rect>
        1 4 1 1</rect></_>
    <_>
      <rect>
        1 7 6 1</rect></_>
    <_>
      <rect>
        1 7 6 4</rect></_>
    <_>
      <rect>
        1 8 2 4</rect></_>
    <_>
      <rect>
        1 13 6 2</rect></_>
    <_>
      <rect>
        1 16 4 1</rect></_>
    <_>
      <rect>
        1 16 6 1</rect></_>
    <_>
      <rect>
        1 17 1 1</rect></_>
    <_>
      <rect>
        2 2 1 1</rect></_>
    <_>
      <rect>
        2 2 3 1</rect></_>
    <_>
      <rect>
        2 3 1 1</rect></_>
    <_>
      <rect>
        2 4 1 1</rect></_>
    <_>
      <rect>
        2 11 2 3</rect></_>
    <_>
      <rect>
        2 11 6 3</rect></_>
    <_>
      <rect>
        2 14 6 1</rect></_>
    <_>
      <rect>
        2 14 6 2</rect></_>
    <_>
      <rect>
        2 15 1 1</rect></_>
    <_>
      <rect>
        2 15 2 1</rect></_>
    <_>
      <rect>
        2 15 3 1</rect></_>
    <_>
      <rect>
        2 17 1 1</rect></_>
    <_>
      <rect>
        2 17 2 1</rect></_>
    <_>
      <rect>
        3 1 2 1</rect></_>
    <_>
      <rect>
        3 2 1 1</rect></_>
    <_>
      <rect>
        3 3 1 1</rect></_>
    <_>
      <rect>
        3 4 1 1</rect></_>
    <_>
      <rect>
        3 5 5 5</rect></_>
    <_>
      <rect>
        3 6 5 2</rect></_>
    <_>
      <rect>
        3 8 5 4</rect></_>
    <_>
      <rect>
        3 16 1 1</rect></_>
    <_>
      <rect>
        3 17 1 1</rect></_>
    <_>
      <rect>
        4 3 1 1</rect></_>
    <_>
      <rect>
        4 3 4 5</rect></_>
    <_>
      <rect>
        4 15 1 1</rect></_>
    <_>
      <rect>
        5 1 2 1</rect></_>
    <_>
      <rect>
        5 1 3 1</rect></_>
    <_>
      <rect>
        5 1 5 1</rect></_>
    <_>
      <rect>
        5 2 1 1</rect></_>
    <_>
      <rect>
        5 2 3 6</rect></_>
    <_>
      <rect>
        5 2 5 1</rect></_>
    <_>
      <rect>
        5 5 3 1</rect></_>
    <_>
      <rect>
        5 5 3 5</rect></_>
    <_>
      <rect>
        5 6 3 1</rect></_>
    <_>
      <rect>
        5 14 5 1</rect></_>
    <_>
      <rect>
        5 16 5 1</rect></_>
    <_>
      <rect>
        6 1 3 1</rect></_>
    <_>
      <rect>
        6 1 3 6</rect></_>
    <_>
      <rect>
        6 2 2 1</rect></_>
    <_>
      <rect>
        6 2 3 4</rect></_>
    <_>
      <rect>
        6 2 3 5</rect></_>
    <_>
      <rect>
        6 2 3 6</rect></_>
    <_>
      <rect>
        6 2 4 1</rect></_>
    <_>
      <rect>
        6 3 3 3</rect></_>
    <_>
      <rect>
        6 4 2 1</rect></_>
    <_>
      <rect>
        6 5 2 1</rect></_>
    <_>
      <rect>
        6 5 3 1</rect></_>
    <_>
      <rect>
        6 5 4 1</rect></_>
    <_>
      <rect>
        6 6 1 1</rect></_>
    <_>
      <rect>
        7 1 3 1</rect></_>
    <_>
      <rect>
        7 3 4 1</rect></_>
    <_>
      <rect>
        7 5 3 1</rect></_>
    <_>
      <rect>
        7 6 2 1</rect></_>
    <_>
      <rect>
        7 6 3 1</rect></_>
    <_>
      <rect>
        7 12 2 1</rect></_>
    <_>
      <rect>
        7 13 2 1</rect></_>
    <_>
      <rect>
        7 14 2 1</rect></_>
    <_>
      <rect>
        7 15 2 1</rect></_>
    <_>
      <rect>
        8 0 4 3</rect></_>
    <_>
      <rect>
        8 1 4 1</rect></_>
    <_>
      <rect>
        8 2 4 1</rect></_>
    <_>
      <rect>
        8 4 2 1</rect></_>
    <_>
      <rect>
        8 4 4 3</rect></_>
    <_>
      <rect>
        8 11 1 1</rect></_>
    <_>
      <rect>
        8 12 1 1</rect></_>
    <_>
      <rect>
        8 13 2 1</rect></_>
    <_>
      <rect>
        8 13 4 1</rect></_>
    <_>
      <rect>
        8 14 4 1</rect></_>
    <_>
      <rect>
        8 15 4 1</rect></_>
    <_>
      <rect>
        8 16 4 1</rect></_>
    <_>
      <rect>
        8 17 4 1</rect></_>
    <_>
      <rect>
        9 2 2 1</rect></_>
    <_>
      <rect>
        9 3 3 1</rect></_>
    <_>
      <rect>
        9 10 1 1</rect></_>
    <_>
      <rect>
        10 1 1 1</rect></_>
    <_>
      <rect>
        10 2 3 1</rect></_>
    <_>
      <rect>
        10 3 1 1</rect></_>
    <_>
      <rect>
        10 7 1 1</rect></_>
    <_>
      <rect>
        10 9 1 1</rect></_>
    <_>
      <rect>
        10 11 1 1</rect></_>
    <_>
      <rect>
        10 15 1 1</rect></_>
    <_>
      <rect>
        10 15 3 1</rect></_>
    <_>
      <rect>
        10 17 1 1</rect></_>
    <_>
      <rect>
        11 0 1 1</rect></_>
    <_>
      <rect>
        11 0 3 1</rect></_>
    <_>
      <rect>
        11 0 3 2</rect></_>
    <_>
      <rect>
        11 1 3 1</rect></_>
    <_>
      <rect>
        11 2 1 1</rect></_>
    <_>
      <rect>
        11 2 3 1</rect></_>
    <_>
      <rect>
        11 3 3 4</rect></_>
    <_>
      <rect>
        11 5 3 1</rect></_>
    <_>
      <rect>
        11 8 1 1</rect></_>
    <_>
      <rect>
        11 10 1 1</rect></_>
    <_>
      <rect>
        11 11 3 2</rect></_>
    <_>
      <rect>
        11 14 3 1</rect></_>
    <_>
      <rect>
        11 15 3 1</rect></_>
    <_>
      <rect>
        11 16 1 1</rect></_>
    <_>
      <rect>
        11 16 3 1</rect></_>
    <_>
      <rect>
        11 17 1 1</rect></_>
    <_>
      <rect>
        11 17 3 1</rect></_>
    <_>
      <rect>
        12 1 1 1</rect></_>
    <_>
      <rect>
        12 2 2 1</rect></_>
    <_>
      <rect>
        12 7 1 1</rect></_>
    <_>
      <rect>
        12 9 1 1</rect></_>
    <_>
      <rect>
        12 15 1 1</rect></_>
    <_>
      <rect>
        13 16 1 1</rect></_>
    <_>
      <rect>
        13 16 2 1</rect></_>
    <_>
      <rect>
        13 17 2 1</rect></_>
    <_>
      <rect>
        14 0 2 6</rect></_>
    <_>
      <rect>
        14 2 2 1</rect></_>
    <_>
      <rect>
        14 2 2 6</rect></_>
    <_>
      <rect>
        14 3 1 1</rect></_>
    <_>
      <rect>
        14 3 2 2</rect></_>
    <_>
      <rect>
        14 3 2 4</rect></_>
    <_>
      <rect>
        14 4 2 1</rect></_>
    <_>
      <rect>
        14 4 2 2</rect></_>
    <_>
      <rect>
        14 5 2 5</rect></_>
    <_>
      <rect>
        14 6 2 2</rect></_>
    <_>
      <rect>
        14 6 2 4</rect></_>
    <_>
      <rect>
        14 8 2 2</rect></_>
    <_>
      <rect>
        14 11 2 2</rect></_>
    <_>
      <rect>
        14 11 2 3</rect></_>
    <_>
      <rect>
        14 12 2 1</rect></_>
    <_>
      <rect>
        14 12 2 2</rect></_>
    <_>
      <rect>
        14 14 2 2</rect></_>
    <_>
      <rect>
        14 17 2 1</rect></_>
    <_>
      <rect>
        15 2 1 1</rect></_>
    <_>
      <rect>
        15 3 1 1</rect></_>
    <_>
      <rect>
        15 4 1 1</rect></_>
    <_>
      <rect>
        15 15 1 1</rect></_>
    <_>
      <rect>
        16 2 1 1</rect></_>
    <_>
      <rect>
        16 3 1 1</rect></_>
    <_>
      <rect>
        16 4 1 1</rect></_>
    <_>
      <rect>
        16 5 1 1</rect></_>
    <_>
      <rect>
        16 12 1 1</rect></_>
    <_>
      <rect>
        17 0 1 1</rect></_>
    <_>
      <rect>
        17 4 1 1</rect></_>
    <_>
      <rect>
        17 4 1 2</rect></_>
    <_>
      <rect>
        17 5 1 2</rect></_>
    <_>
      <rect>
        17 5 1 4</rect></_>
    <_>
      <rect>
        17 6 1 1</rect></_>
    <_>
      <rect>
        17 7 1 1</rect></_>
    <_>
      <rect>
        17 7 1 2</rect></_>
    <_>
      <rect>
        17 8 1 2</rect></_>
    <_>
      <rect>
        17 8 1 4</rect></_>
    <_>
      <rect>
        17 10 1 1</rect></_>
    <_>
      <rect>
        17 10 1 2</rect></_>
    <_>
      <rect>
        17 12 1 1</rect></_>
    <_>
      <rect>
        17 13 1 1</rect></_>
    <_>
      <rect>
        17 13 1 2</rect></_>
    <_>
      <rect>
        17 14 1 1</rect></_>
    <_>
      <rect>
        17 14 1 2</rect></_>
    <_>
      <rect>
        17 15 1 1</rect></_>
    <_>
      <rect>
        17 16 1 1</rect></_>
    <_>
      <rect>
        17 17 1 1</rect></_></features></cascade>
</opencv_storage>
