<?xml version="1.0"?>
<opencv_storage>
<cascade>
  <stageType>BOOST</stageType>
  <featureType>LBP</featureType>
  <height>20</height>
  <width>20</width>
  <stageParams>
    <boostType>GAB</boostType>
    <minHitRate>9.9900001287460327e-001</minHitRate>
    <maxFalseAlarm>5.5000001192092896e-001</maxFalseAlarm>
    <weightTrimRate>9.4999999999999996e-001</weightTrimRate>
    <maxDepth>1</maxDepth>
    <maxWeakCount>100</maxWeakCount></stageParams>
  <featureParams>
    <maxCatCount>256</maxCatCount>
    <featSize>1</featSize></featureParams>
  <stageNum>14</stageNum>
  <stages>
    <!-- stage 0 -->
    <_>
      <maxWeakCount>10</maxWeakCount>
      <stageThreshold>-2.6047391891479492e+000</stageThreshold>
      <weakClassifiers>
        <_>
          <internalNodes>
            0 -1 64 -1 -16385 -1 -836621 1064517631 -311297 2147434495
            1064515379</internalNodes>
          <leafValues>
            -7.7054733037948608e-001 3.5814914107322693e-001</leafValues></_>
        <_>
          <internalNodes>
            0 -1 213 831525080 -1108328967 -213505 -1073897475
            -1078412803 -1073922118 -1073987585 -1080284504</internalNodes>
          <leafValues>
            -5.8761566877365112e-001 4.7567972540855408e-001</leafValues></_>
        <_>
          <internalNodes>
            0 -1 303 269484272 -67169356 -33556993 -52227 -1094995201
            -1075961094 -1073759233 -1140915526</internalNodes>
          <leafValues>
            -5.0498813390731812e-001 5.0782841444015503e-001</leafValues></_>
        <_>
          <internalNodes>
            0 -1 51 -196610 -196610 -458756 -476364 -2572292 -34592896
            -4325378 322970112</internalNodes>
          <leafValues>
            -7.4102425575256348e-001 3.0450388789176941e-001</leafValues></_>
        <_>
          <internalNodes>
            0 -1 354 -33560324 -571146500 -704850724 -637741828 16623804
            -1124074244 15519996 16771327</internalNodes>
          <leafValues>
            -4.6421295404434204e-001 3.8979399204254150e-001</leafValues></_>
        <_>
          <internalNodes>
            0 -1 309 -254799728 -246152412 -491531 -57795 -84363268
            -1145292320 -4276294 -1146478432</internalNodes>
          <leafValues>
            -4.1545090079307556e-001 4.0517011284828186e-001</leafValues></_>
        <_>
          <internalNodes>
            0 -1 251 883965428 -33800195 -1076002817 -180225 -148739
            -671745 -1073889537 -1078460248</internalNodes>
          <leafValues>
            -4.1494777798652649e-001 3.6911761760711670e-001</leafValues></_>
        <_>
          <internalNodes>
            0 -1 428 -1549018629 715911521 257157111 -1497376001
            -1700282373 199094783 -1437664337 -72352001</internalNodes>
          <leafValues>
            -2.6067197322845459e-001 5.1159840822219849e-001</leafValues></_>
        <_>
          <internalNodes>
            0 -1 23 -357896534 -1205700046 8422096 2098261824
            -1023489320 -1598882830 50608 -671878413</internalNodes>
          <leafValues>
            -3.7653967738151550e-001 3.5506319999694824e-001</leafValues></_>
        <_>
          <internalNodes>
            0 -1 325 -2071198476 -287522820 -1 -50407460 -1073764130
            -1140984074 -1073762322 -1359084888</internalNodes>
          <leafValues>
            -3.8751822710037231e-001 3.2657310366630554e-001</leafValues></_></weakClassifiers></_>
    <!-- stage 1 -->
    <_>
      <maxWeakCount>15</maxWeakCount>
      <stageThreshold>-2.8161919116973877e+000</stageThreshold>
      <weakClassifiers>
        <_>
          <internalNodes>
            0 -1 92 1999656951 -294913 -294913 -311301 2003861503
            -819201 -32769 -32901</internalNodes>
          <leafValues>
            -6.3546121120452881e-001 5.0427532196044922e-001</leafValues></_>
        <_>
          <internalNodes>
            0 -1 371 -1 503258879 -1073741825 1073725439 -285237249
            -1342194177 -1660945921 150932735</internalNodes>
          <leafValues>
            -5.4141741991043091e-001 4.3266466259956360e-001</leafValues></_>
        <_>
          <internalNodes>
            0 -1 216 -1879010096 -213507 -131075 -182307 -1359172675
            -20497 -1073938433 -1077146484</internalNodes>
          <leafValues>
            -4.5087569952011108e-001 4.6210303902626038e-001</leafValues></_>
        <_>
          <internalNodes>
            0 -1 214 -2293764 -2228225 -4915201 -131073 -131073 -131073
            -131073 -152918</internalNodes>
          <leafValues>
            -4.2186042666435242e-001 4.3660700321197510e-001</leafValues></_>
        <_>
          <internalNodes>
            0 -1 77 -37749466 -13419244 -28362192 -38618832 -412722140
            -1105562352 -256691456 -789470</internalNodes>
          <leafValues>
            -3.8382372260093689e-001 3.9593094587326050e-001</leafValues></_>
        <_>
          <internalNodes>
            0 -1 329 -256634660 -33669635 -35669505 -49155 -22238820
            -1074227016 -16859397 -1145427030</internalNodes>
          <leafValues>
            -3.2080528140068054e-001 4.3372505903244019e-001</leafValues></_>
        <_>
          <internalNodes>
            0 -1 301 1007686132 -67338307 -131073 -49155 -131073 -16386
            -1342193665 -1140981576</internalNodes>
          <leafValues>
            -3.6353358626365662e-001 3.5672220587730408e-001</leafValues></_>
        <_>
          <internalNodes>
            0 -1 386 -31201278 -567631098 -1595766144 -1610440574
            -747174912 1409631492 -235422018 -243800101</internalNodes>
          <leafValues>
            -3.5709741711616516e-001 3.6756068468093872e-001</leafValues></_>
        <_>
          <internalNodes>
            0 -1 328 247463133 230422783 763346943 1073740647
            -1342193665 -1660961283 784050942 -1900032017</internalNodes>
          <leafValues>
            -2.8483471274375916e-001 4.1198605298995972e-001</leafValues></_>
        <_>
          <internalNodes>
            0 -1 19 -16843782 -9290766 -1682900044 1005593584 -458760
            -66056 -8060936 2138273587</internalNodes>
          <leafValues>
            -3.8402166962623596e-001 3.1319463253021240e-001</leafValues></_>
        <_>
          <internalNodes>
            0 -1 192 -8409072 -41945932 -149893 -42090971 -18903139
            -81986 -1981990225 549452991</internalNodes>
          <leafValues>
            -3.3626511693000793e-001 3.3362758159637451e-001</leafValues></_>
        <_>
          <internalNodes>
            0 -1 171 -134350849 -33689604 -67125761 -147457 -17973249
            -1174621428 -2113541 801907240</internalNodes>
          <leafValues>
            -3.6874926090240479e-001 2.8544726967811584e-001</leafValues></_>
        <_>
          <internalNodes>
            0 -1 138 -930876758 -1047531488 -998397536 -171707680
            -981363202 -995886590 1443100610 -1047531322</internalNodes>
          <leafValues>
            -2.7084329724311829e-001 3.7138605117797852e-001</leafValues></_>
        <_>
          <internalNodes>
            0 -1 222 -1129267724 -33800260 -19087363 -40100460
            -1225736231 -7275020 -1076609026 -1346893648</internalNodes>
          <leafValues>
            -3.1719654798507690e-001 2.9963642358779907e-001</leafValues></_>
        <_>
          <internalNodes>
            0 -1 415 -488643072 1152417588 -185682208 -253231118
            1358233728 7356485 -256387968 -454048270</internalNodes>
          <leafValues>
            -3.4644523262977600e-001 2.7366355061531067e-001</leafValues></_></weakClassifiers></_>
    <!-- stage 2 -->
    <_>
      <maxWeakCount>19</maxWeakCount>
      <stageThreshold>-2.8388607501983643e+000</stageThreshold>
      <weakClassifiers>
        <_>
          <internalNodes>
            0 -1 326 1035992573 368967167 -1073758209 -1073741825
            -1073742337 -1107296769 -1090536193 -1342177281</internalNodes>
          <leafValues>
            -6.2259763479232788e-001 4.1239011287689209e-001</leafValues></_>
        <_>
          <internalNodes>
            0 -1 63 -1 -12845257 -295041 -13402317 1064779647 -9224205
            2147450879 1072903987</internalNodes>
          <leafValues>
            -5.3590476512908936e-001 3.6024624109268188e-001</leafValues></_>
        <_>
          <internalNodes>
            0 -1 259 -12583660 1886779159 -3 1971322751 -324 -33816577
            -1195460440 -1463812421</internalNodes>
          <leafValues>
            -3.9293393492698669e-001 4.5889252424240112e-001</leafValues></_>
        <_>
          <internalNodes>
            0 -1 228 269488596 -180228 1028726751 -180225 -212994
            -213588 -4341761 -1148452728</internalNodes>
          <leafValues>
            -3.8286373019218445e-001 4.2309278249740601e-001</leafValues></_>
        <_>
          <internalNodes>
            0 -1 87 2146467830 -294913 -262145 -836653 1734367220
            -1015821 -557057 -821390</internalNodes>
          <leafValues>
            -3.1271839141845703e-001 4.2798325419425964e-001</leafValues></_>
        <_>
          <internalNodes>
            0 -1 353 -2820 -8062024 -655033868 -102695696 -1325542180
            -16908804 -654508804 -656408833</internalNodes>
          <leafValues>
            -3.0828103423118591e-001 4.1227522492408752e-001</leafValues></_>
        <_>
          <internalNodes>
            0 -1 144 -326917470 -1979668830 -805175296 -708199486
            -784263808 -2080313881 1424429056 -706222609</internalNodes>
          <leafValues>
            -3.4645926952362061e-001 3.3641332387924194e-001</leafValues></_>
        <_>
          <internalNodes>
            0 -1 271 342898172 -214307 -1208091137 -180227 -147457
            -147713 -4341825 -1078458200</internalNodes>
          <leafValues>
            -3.3765491843223572e-001 3.3292537927627563e-001</leafValues></_>
        <_>
          <internalNodes>
            0 -1 424 -4097 11465711 -1090670860 -1594430738 -1510608899
            13283055 -167777028 -1057226753</internalNodes>
          <leafValues>
            -2.9336231946945190e-001 3.7444967031478882e-001</leafValues></_>
        <_>
          <internalNodes>
            0 -1 15 -286617642 -143458306 -541282305 -3103008 1338275839
            -17465417 -287485953 1878345303</internalNodes>
          <leafValues>
            -3.3455687761306763e-001 3.2193231582641602e-001</leafValues></_>
        <_>
          <internalNodes>
            0 -1 18 -827667798 -268370960 -1997217061 1440752624
            -1996993848 -538061144 -487785766 -571357456</internalNodes>
          <leafValues>
            -4.0982821583747864e-001 2.4384959042072296e-001</leafValues></_>
        <_>
          <internalNodes>
            0 -1 96 -176718989 -8552705 -4227073 -312549 2118606715
            -10002569 -36929 -8700033</internalNodes>
          <leafValues>
            -2.3356008529663086e-001 4.2862859368324280e-001</leafValues></_>
        <_>
          <internalNodes>
            0 -1 385 -202914294 -8958386 1659538944 853697058 -835062
            -212381950 -218371446 -232265142</internalNodes>
          <leafValues>
            -2.6087298989295959e-001 3.2782232761383057e-001</leafValues></_>
        <_>
          <internalNodes>
            0 -1 332 -1271914448 -1266092688 -2705986 -4451408
            -520180293 -268765699 -269638469 -1431633758</internalNodes>
          <leafValues>
            -2.9632833600044250e-001 2.7902051806449890e-001</leafValues></_>
        <_>
          <internalNodes>
            0 -1 292 -733209328 -67797128 -1107493123 -33801295
            -273400861 -1091524900 -190660616 -1413873120</internalNodes>
          <leafValues>
            -3.2636922597885132e-001 2.4815732240676880e-001</leafValues></_>
        <_>
          <internalNodes>
            0 -1 151 -436738052 1476313086 1375600125 -1207975937
            -536887299 -1343997192 -67257860 618478332</internalNodes>
          <leafValues>
            -3.9769577980041504e-001 1.9705583155155182e-001</leafValues></_>
        <_>
          <internalNodes>
            0 -1 66 -25166332 -1475814636 855439540 -1330463184
            -616606460 2083837264 -188320208 -790102953</internalNodes>
          <leafValues>
            -3.3374738693237305e-001 2.2619229555130005e-001</leafValues></_>
        <_>
          <internalNodes>
            0 -1 298 -1799865668 536755644 -1076020259 -537055492
            -537118788 -1124303364 -4194307 -1078189912</internalNodes>
          <leafValues>
            -3.4836682677268982e-001 2.2526477277278900e-001</leafValues></_>
        <_>
          <internalNodes>
            0 -1 8 -2117424406 -270488610 -269100933 961547894 -335878
            -35 -18547474 1396786786</internalNodes>
          <leafValues>
            -3.7634706497192383e-001 1.9324627518653870e-001</leafValues></_></weakClassifiers></_>
    <!-- stage 3 -->
    <_>
      <maxWeakCount>22</maxWeakCount>
      <stageThreshold>-2.7037258148193359e+000</stageThreshold>
      <weakClassifiers>
        <_>
          <internalNodes>
            0 -1 91 2138210303 -294913 -32769 -311301 2004189183
            -9207809 -32769 -32897</internalNodes>
          <leafValues>
            -6.1322760581970215e-001 3.2827165722846985e-001</leafValues></_>
        <_>
          <internalNodes>
            0 -1 419 -1 805289983 -1342193665 -1073762306 -1375752194
            218074878 -1358967553 754974719</internalNodes>
          <leafValues>
            -4.4256582856178284e-001 3.7561029195785522e-001</leafValues></_>
        <_>
          <internalNodes>
            0 -1 195 -1317006856 -1074249731 -1073922051 -1073889291
            -1073922051 -1073889537 -245761 265030540</internalNodes>
          <leafValues>
            -5.1048666238784790e-001 3.0350551009178162e-001</leafValues></_>
        <_>
          <internalNodes>
            0 -1 75 -9375758 -65537 -34144257 -479262 1080037360
            -1038348 2146729983 2146715460</internalNodes>
          <leafValues>
            -4.7970661520957947e-001 2.8534492850303650e-001</leafValues></_>
        <_>
          <internalNodes>
            0 -1 16 -327682 -80674958 -123666448 -15666224 -339970
            -327693 -526322448 -4982797</internalNodes>
          <leafValues>
            -3.2758980989456177e-001 3.7902820110321045e-001</leafValues></_>
        <_>
          <internalNodes>
            0 -1 277 343930356 341359900 -16785923 1065222143
            -1124073987 -1124221267 -1124091650 683473068</internalNodes>
          <leafValues>
            -4.2977255582809448e-001 2.3857237398624420e-001</leafValues></_>
        <_>
          <internalNodes>
            0 -1 165 -1031605534 -358440288 -961031950 -672664864
            -995821574 -2132630838 -1010309405 -959463198</internalNodes>
          <leafValues>
            -2.5675076246261597e-001 4.0492352843284607e-001</leafValues></_>
        <_>
          <internalNodes>
            0 -1 310 -550515712 721457664 -1077544139 -172362160
            -50331972 -21299714 -195236196 -54985794</internalNodes>
          <leafValues>
            -4.0454566478729248e-001 2.4310283362865448e-001</leafValues></_>
        <_>
          <internalNodes>
            0 -1 225 352328176 -1108033538 506544126 -1073922056
            -4898819 -1074446402 -1174651652 747118720</internalNodes>
          <leafValues>
            -4.7193804383277893e-001 2.0603536069393158e-001</leafValues></_>
        <_>
          <internalNodes>
            0 -1 378 -1409294337 50316793 -1342194689 -1342177313
            -1610629125 218103803 771730175 -1358955521</internalNodes>
          <leafValues>
            -2.9231935739517212e-001 3.3917185664176941e-001</leafValues></_>
        <_>
          <internalNodes>
            0 -1 381 -278157822 2415238 -1608474462 539159210 -598670336
            71305556 -1604155202 -261883185</internalNodes>
          <leafValues>
            -3.3958423137664795e-001 2.7508786320686340e-001</leafValues></_>
        <_>
          <internalNodes>
            0 -1 309 -609740624 -2344972 -475147 -577793 -1075265552
            -360706 -344065 -1078314070</internalNodes>
          <leafValues>
            -2.8855514526367188e-001 3.0601775646209717e-001</leafValues></_>
        <_>
          <internalNodes>
            0 -1 95 -31303177 -1082186825 2147434495 1056642867
            2059369271 2121612159 -134267017 -8686729</internalNodes>
          <leafValues>
            -2.7825644612312317e-001 2.9408156871795654e-001</leafValues></_>
        <_>
          <internalNodes>
            0 -1 318 -1197427980 -1734854664 2113682813 -1032208
            -1074873608 -18302000 -213570 -1163261720</internalNodes>
          <leafValues>
            -3.1759572029113770e-001 2.5729700922966003e-001</leafValues></_>
        <_>
          <internalNodes>
            0 -1 109 -991698814 -1937104244 1153901600 -35003784
            -1066941235 143335 -168065920 -1058021141</internalNodes>
          <leafValues>
            -2.7875629067420959e-001 2.7473157644271851e-001</leafValues></_>
        <_>
          <internalNodes>
            0 -1 420 -469774617 -927027256 -293605388 -252973078
            -1883551760 1079297892 -520629120 -251662669</internalNodes>
          <leafValues>
            -2.4708595871925354e-001 3.1142750382423401e-001</leafValues></_>
        <_>
          <internalNodes>
            0 -1 251 343940212 -1124302851 -136986625 -1116258315
            -1409957963 -200705 -1091026945 716705836</internalNodes>
          <leafValues>
            -4.4619426131248474e-001 1.8619634211063385e-001</leafValues></_>
        <_>
          <internalNodes>
            0 -1 296 -1242289744 -151058689 -4947970 -4638856
            -1074874443 -148553 -1128383491 -1140973382</internalNodes>
          <leafValues>
            -2.8217557072639465e-001 2.6090276241302490e-001</leafValues></_>
        <_>
          <internalNodes>
            0 -1 238 -42074860 278968124 1575992765 -42205697 -21644
            -187400194 -1090903512 549321279</internalNodes>
          <leafValues>
            -3.3792695403099060e-001 2.0400348305702209e-001</leafValues></_>
        <_>
          <internalNodes>
            0 -1 325 -1431818000 -1074251777 -1 -1107412995 -148006
            -541116421 -1073791041 -1146215752</internalNodes>
          <leafValues>
            -3.0911472439765930e-001 2.2261035442352295e-001</leafValues></_>
        <_>
          <internalNodes>
            0 -1 26 -974589982 -69341200 -554061826 2113220464
            -991673148 -51347468 -537080070 -706361356</internalNodes>
          <leafValues>
            -3.6981195211410522e-001 1.8692983686923981e-001</leafValues></_>
        <_>
          <internalNodes>
            0 -1 10 -823219478 -206049782 -1090761731 869731326
            -654840850 -67830796 -287023106 1371882066</internalNodes>
          <leafValues>
            -3.4109055995941162e-001 1.8855383992195129e-001</leafValues></_></weakClassifiers></_>
    <!-- stage 4 -->
    <_>
      <maxWeakCount>27</maxWeakCount>
      <stageThreshold>-2.6826560497283936e+000</stageThreshold>
      <weakClassifiers>
        <_>
          <internalNodes>
            0 -1 78 -32769 -32769 -49153 -129 -32897 -32769 -49350
            -32769</internalNodes>
          <leafValues>
            -6.1093789339065552e-001 2.9460373520851135e-001</leafValues></_>
        <_>
          <internalNodes>
            0 -1 278 275830260 368967157 1073741311 1073741823
            -1124073985 -1124073985 1023346943 687848703</internalNodes>
          <leafValues>
            -5.0321549177169800e-001 2.8296974301338196e-001</leafValues></_>
        <_>
          <internalNodes>
            0 -1 196 -16624 -1111638211 -1115832387 -1078083777
            -67125316 -1073891331 -50577476 750649151</internalNodes>
          <leafValues>
            -4.0992289781570435e-001 3.1852102279663086e-001</leafValues></_>
        <_>
          <internalNodes>
            0 -1 83 -354226182 -884737 -262145 -835597 101715958
            -9220105 2146926591 2138523475</internalNodes>
          <leafValues>
            -3.7398111820220947e-001 3.1601831316947937e-001</leafValues></_>
        <_>
          <internalNodes>
            0 -1 217 -134414339 -197633 -168427521 -131073 -131075
            -131073 -131073 -152902</internalNodes>
          <leafValues>
            -2.9235842823982239e-001 3.8444408774375916e-001</leafValues></_>
        <_>
          <internalNodes>
            0 -1 363 -1 -8519684 -839099140 -33686276 -1392523012 -12804
            16548092 687839486</internalNodes>
          <leafValues>
            -3.5491612553596497e-001 2.6468756794929504e-001</leafValues></_>
        <_>
          <internalNodes>
            0 -1 105 -355532802 -336924934 -402984961 -679232 1177024503
            -540677 1207304191 -572685</internalNodes>
          <leafValues>
            -2.4420173466205597e-001 3.7854236364364624e-001</leafValues></_>
        <_>
          <internalNodes>
            0 -1 379 -799027136 1432353307 -263064046 1879570506
            -98631672 -663493056 -234161462 -263980534</internalNodes>
          <leafValues>
            -2.8057578206062317e-001 3.0963525176048279e-001</leafValues></_>
        <_>
          <internalNodes>
            0 -1 428 285465599 786422271 1071592439 -1358954499
            1065336831 803994618 -1350829125 -1052929</internalNodes>
          <leafValues>
            -2.5280335545539856e-001 3.2520237565040588e-001</leafValues></_>
        <_>
          <internalNodes>
            0 -1 315 269489588 -8634884 -134365185 -33686091 -134431041
            -161797 -16385 -1162204534</internalNodes>
          <leafValues>
            -2.8710582852363586e-001 2.9125371575355530e-001</leafValues></_>
        <_>
          <internalNodes>
            0 -1 54 -285278210 -903681688 -462225424 -1058871806
            -319357700 -319786092 -185271100 -445394365</internalNodes>
          <leafValues>
            -3.1911972165107727e-001 2.4278989434242249e-001</leafValues></_>
        <_>
          <internalNodes>
            0 -1 285 888411644 -1107543042 -131073 -180235 -16975363
            -508932 -393220 -1078448984</internalNodes>
          <leafValues>
            -3.5949069261550903e-001 2.1073716878890991e-001</leafValues></_>
        <_>
          <internalNodes>
            0 -1 416 -285741201 -1596457257 -286274050 -253630730
            -856209441 -932386209 -922762052 -1058013698</internalNodes>
          <leafValues>
            -2.1248988807201385e-001 3.2590642571449280e-001</leafValues></_>
        <_>
          <internalNodes>
            0 -1 334 -1167049296 -1073865922 1073610751 -1073856579
            -1073823828 -1073758274 -1090635010 -1145429448</internalNodes>
          <leafValues>
            -3.2442817091941833e-001 2.2174715995788574e-001</leafValues></_>
        <_>
          <internalNodes>
            0 -1 143 -341056990 -1012684118 -978376990 -101715774
            -2016506746 75702432 1172791488 -1060118398</internalNodes>
          <leafValues>
            -2.6783356070518494e-001 2.5987157225608826e-001</leafValues></_>
        <_>
          <internalNodes>
            0 -1 304 -33782372 -1213453188 -16705 -67194946 -182288
            883954976 -85061 -1078318408</internalNodes>
          <leafValues>
            -2.5346705317497253e-001 2.6262688636779785e-001</leafValues></_>
        <_>
          <internalNodes>
            0 -1 42 -1027551246 -331777 -94341 732965410 1876167670
            -884743 -561185 2143373155</internalNodes>
          <leafValues>
            -2.8672045469284058e-001 2.2620336711406708e-001</leafValues></_>
        <_>
          <internalNodes>
            0 -1 359 -222824958 10808846 -1599164800 -1197282682
            1950831616 -732528875 -396890481 -47710393</internalNodes>
          <leafValues>
            -3.1040421128273010e-001 2.1063534915447235e-001</leafValues></_>
        <_>
          <internalNodes>
            0 -1 156 34672688 939519989 1039482879 939274239 1040133119
            882682876 2147434495 987766944</internalNodes>
          <leafValues>
            -4.8171386122703552e-001 1.3533179461956024e-001</leafValues></_>
        <_>
          <internalNodes>
            0 -1 245 624173364 515686204 2013183487 -134939652 796161904
            -1142157316 -286244932 -1363399680</internalNodes>
          <leafValues>
            -3.8329628109931946e-001 1.5141665935516357e-001</leafValues></_>
        <_>
          <internalNodes>
            0 -1 35 -393288030 -2145343824 1087409873 301023520
            -226704430 -865382939 -521747202 -999819405</internalNodes>
          <leafValues>
            -2.6582887768745422e-001 2.2067078948020935e-001</leafValues></_>
        <_>
          <internalNodes>
            0 -1 198 -18672 -1266880724 2008940345 1034450721 -1073748
            -1124098063 -1395103192 616365615</internalNodes>
          <leafValues>
            -3.1585213541984558e-001 1.8115034699440002e-001</leafValues></_>
        <_>
          <internalNodes>
            0 -1 94 -12624577 467615029 -1674765711 -702081217
            -138711273 -53889 -827253456 -79728619</internalNodes>
          <leafValues>
            -2.2813999652862549e-001 2.5581169128417969e-001</leafValues></_>
        <_>
          <internalNodes>
            0 -1 426 -1141637189 635207474 -1159742724 -1248843896
            -1887650371 545125948 -274743316 -524550401</internalNodes>
          <leafValues>
            -1.9975802302360535e-001 2.8495639562606812e-001</leafValues></_>
        <_>
          <internalNodes>
            0 -1 316 -692277032 -1615151128 -1050433 -2121474
            -1128333316 -290146832 -16941832 -1428545374</internalNodes>
          <leafValues>
            -2.3881216347217560e-001 2.3598060011863708e-001</leafValues></_>
        <_>
          <internalNodes>
            0 -1 368 -68157506 -1154548236 -1107427948 -1196622218
            -17896307 -1362584251 -456217452 -1060635355</internalNodes>
          <leafValues>
            -2.5659927725791931e-001 2.1403719484806061e-001</leafValues></_>
        <_>
          <internalNodes>
            0 -1 254 749230452 -16875523 2013110205 -1409343491
            -1342408845 -148489 -1074004101 716965920</internalNodes>
          <leafValues>
            -3.8400641083717346e-001 1.4835004508495331e-001</leafValues></_></weakClassifiers></_>
    <!-- stage 5 -->
    <_>
      <maxWeakCount>31</maxWeakCount>
      <stageThreshold>-2.6625711917877197e+000</stageThreshold>
      <weakClassifiers>
        <_>
          <internalNodes>
            0 -1 80 -32769 -49153 -32769 -32961 1061109631 2147450879
            2147450879 2147448703</internalNodes>
          <leafValues>
            -6.8076151609420776e-001 8.3296678960323334e-002</leafValues></_>
        <_>
          <internalNodes>
            0 -1 193 -1197425160 -1074200579 -155651 -1073889283
            -1073889283 -1 -1073922049 -1073934883</internalNodes>
          <leafValues>
            -4.1648811101913452e-001 3.0418998003005981e-001</leafValues></_>
        <_>
          <internalNodes>
            0 -1 374 -513 503258207 -1073750017 1073692671 -268451841
            1040179199 -1929380353 548400383</internalNodes>
          <leafValues>
            -3.7144294381141663e-001 3.2913196086883545e-001</leafValues></_>
        <_>
          <internalNodes>
            0 -1 20 -353440002 -348166 -268652545 -269442400 1081346038
            -5017601 -268574721 1878476659</internalNodes>
          <leafValues>
            -3.8731443881988525e-001 2.6689118146896362e-001</leafValues></_>
        <_>
          <internalNodes>
            0 -1 173 -33570817 -212996 838677759 -17409 -212996 -214536
            -17409 1071393464</internalNodes>
          <leafValues>
            -4.2590785026550293e-001 2.4281516671180725e-001</leafValues></_>
        <_>
          <internalNodes>
            0 -1 380 -6582 -782764273 -1560665566 273152618 -27852792
            1346789952 -1603821398 -263458229</internalNodes>
          <leafValues>
            -2.6590466499328613e-001 3.3691462874412537e-001</leafValues></_>
        <_>
          <internalNodes>
            0 -1 328 218103805 805306367 -1115685889 -1073741865
            -1073742593 -1929380353 -1358972673 -1879052353</internalNodes>
          <leafValues>
            -2.6422336697578430e-001 3.5034951567649841e-001</leafValues></_>
        <_>
          <internalNodes>
            0 -1 37 -1 -13485264 -5177474 1931490096 -587661316
            -13566158 -9379844 2134071091</internalNodes>
          <leafValues>
            -3.0118364095687866e-001 2.7373620867729187e-001</leafValues></_>
        <_>
          <internalNodes>
            0 -1 240 286534644 -147459 -148481 -147457 -131089 -150533
            -16385 -1073935190</internalNodes>
          <leafValues>
            -2.5249737501144409e-001 3.1446456909179688e-001</leafValues></_>
        <_>
          <internalNodes>
            0 -1 88 1410357234 -168372226 2134007803 2146446210
            2088001525 -2850817 -163841 2146727795</internalNodes>
          <leafValues>
            -3.2719421386718750e-001 2.1646249294281006e-001</leafValues></_>
        <_>
          <internalNodes>
            0 -1 386 -536706048 453703522 576849922 -1876774912
            -81592320 -62753276 -226572038 -210501749</internalNodes>
          <leafValues>
            -3.0711320042610168e-001 2.1633809804916382e-001</leafValues></_>
        <_>
          <internalNodes>
            0 -1 329 -184807272 -1073857029 -39896129 -49157 -258084
            -67364164 -1074872582 -1145423446</internalNodes>
          <leafValues>
            -2.4629105627536774e-001 2.5617581605911255e-001</leafValues></_>
        <_>
          <internalNodes>
            0 -1 74 -69015558 -65537 -272712194 -269702170 72353264
            -9127961 1869900751 1878345475</internalNodes>
          <leafValues>
            -3.1470867991447449e-001 1.9040153920650482e-001</leafValues></_>
        <_>
          <internalNodes>
            0 -1 30 -353374590 -2139042646 -855765952 -580137279
            -849941042 -867106854 -942325760 -932975121</internalNodes>
          <leafValues>
            -2.7448177337646484e-001 2.1789112687110901e-001</leafValues></_>
        <_>
          <internalNodes>
            0 -1 294 -53469196 -72026116 -1076054019 -248339 -196611
            -33620322 -1073958916 -1145557504</internalNodes>
          <leafValues>
            -2.8139898180961609e-001 2.1683149039745331e-001</leafValues></_>
        <_>
          <internalNodes>
            0 -1 366 -4194348 -83172076 -168298572 -126550864 -41953872
            -563937500 1747990544 -927467337</internalNodes>
          <leafValues>
            -2.6621150970458984e-001 2.2998937964439392e-001</leafValues></_>
        <_>
          <internalNodes>
            0 -1 190 -1561842896 -1074118796 -114692 -1078448142
            -1493221451 2147232628 -1895991308 -1479016272</internalNodes>
          <leafValues>
            -3.6442944407463074e-001 1.5217599272727966e-001</leafValues></_>
        <_>
          <internalNodes>
            0 -1 414 -490476124 -1578783375 -323093028 1610625744
            -991442448 -387067943 -994589484 -1057491714</internalNodes>
          <leafValues>
            -2.5796744227409363e-001 2.2286467254161835e-001</leafValues></_>
        <_>
          <internalNodes>
            0 -1 298 471635612 1038101948 -1610629155 -741380 -549705732
            -1107449860 -7487492 -1159198584</internalNodes>
          <leafValues>
            -3.5260596871376038e-001 1.5344627201557159e-001</leafValues></_>
        <_>
          <internalNodes>
            0 -1 27 -890839042 -337448982 -18026817 -1986000224
            -681295900 -1762363423 -807440793 1675706435</internalNodes>
          <leafValues>
            -3.4679466485977173e-001 1.5807971358299255e-001</leafValues></_>
        <_>
          <internalNodes>
            0 -1 384 -63455230 -208539116 -1972352296 -263127506
            -531331580 1111540418 -252582198 -262935998</internalNodes>
          <leafValues>
            -2.4572843313217163e-001 2.1870183944702148e-001</leafValues></_>
        <_>
          <internalNodes>
            0 -1 71 -134217929 -1725973701 -136872078 -123537102
            -17357452 -11124905 -489263616 -218893198</internalNodes>
          <leafValues>
            -2.1867665648460388e-001 2.4021871387958527e-001</leafValues></_>
        <_>
          <internalNodes>
            0 -1 276 -1325412204 338983956 2130697982 -1077022851
            -1334444804 -1271960067 754756798 672989096</internalNodes>
          <leafValues>
            -3.2340857386589050e-001 1.7004184424877167e-001</leafValues></_>
        <_>
          <internalNodes>
            0 -1 7 -1952273629 124366847 -605590801 2077297422
            -872615938 -539303938 -285421685 1205948235</internalNodes>
          <leafValues>
            -2.6142308115959167e-001 2.1267373859882355e-001</leafValues></_>
        <_>
          <internalNodes>
            0 -1 332 -1265585996 -1128876559 -1103647233 -4329032
            -67113553 -587546636 -88162561 -1431696862</internalNodes>
          <leafValues>
            -2.3123067617416382e-001 2.2054424881935120e-001</leafValues></_>
        <_>
          <internalNodes>
            0 -1 95 -4227285 -805686997 2126462833 859520308 -739606661
            -67666049 -29462684 -268437161</internalNodes>
          <leafValues>
            -1.9250085949897766e-001 2.5441810488700867e-001</leafValues></_>
        <_>
          <internalNodes>
            0 -1 255 343179124 -1124274177 -1073905665 -1074316033
            -1073971339 -245764 -268484617 -1413676508</internalNodes>
          <leafValues>
            -2.7322041988372803e-001 1.8084801733493805e-001</leafValues></_>
        <_>
          <internalNodes>
            0 -1 405 -423909376 -1812532388 -1025478144 -1858887408
            1081279616 -934470295 -1594326902 -432290085</internalNodes>
          <leafValues>
            -2.1020975708961487e-001 2.3895788192749023e-001</leafValues></_>
        <_>
          <internalNodes>
            0 -1 309 -1592524800 -1179371587 1609908094 -418049
            -1159196684 -88311044 -1359467342 -1163124192</internalNodes>
          <leafValues>
            -3.6003237962722778e-001 1.3696415722370148e-001</leafValues></_>
        <_>
          <internalNodes>
            0 -1 421 -16798721 217432572 -1073743875 -1174680682
            231673292 209110507 -1930523400 1077017019</internalNodes>
          <leafValues>
            -2.3213210701942444e-001 2.1723650395870209e-001</leafValues></_>
        <_>
          <internalNodes>
            0 -1 301 -1934353164 -1426309192 2130542590 -1090593027
            -1073954826 -67322122 -1245758466 -1365376960</internalNodes>
          <leafValues>
            -3.0820479989051819e-001 1.5655942261219025e-001</leafValues></_></weakClassifiers></_>
    <!-- stage 6 -->
    <_>
      <maxWeakCount>36</maxWeakCount>
      <stageThreshold>-2.6338601112365723e+000</stageThreshold>
      <weakClassifiers>
        <_>
          <internalNodes>
            0 -1 425 -1073741825 805306367 -1073758209 -1073758466
            -1073741825 1073741823 -1 2147483647</internalNodes>
          <leafValues>
            -6.1420500278472900e-001 1.3184922933578491e-001</leafValues></_>
        <_>
          <internalNodes>
            0 -1 187 -131073 -131073 -131073 -131073 -131073 -131073
            -131073 -152918</internalNodes>
          <leafValues>
            -3.1508111953735352e-001 4.1827121376991272e-001</leafValues></_>
        <_>
          <internalNodes>
            0 -1 72 -262145 -786633 -32897 -5015789 1065320319
            2146924471 1065320447 2012436275</internalNodes>
          <leafValues>
            -3.5562953352928162e-001 3.0325275659561157e-001</leafValues></_>
        <_>
          <internalNodes>
            0 -1 258 -236 2101313309 -4243649 -1086324929 -516 -1
            -83969350 -1430259009</internalNodes>
          <leafValues>
            -2.6672166585922241e-001 3.9709180593490601e-001</leafValues></_>
        <_>
          <internalNodes>
            0 -1 330 -8392364 1886715735 -41975937 1900019263 -90178852
            -100925474 -83952966 -1195639041</internalNodes>
          <leafValues>
            -2.3902171850204468e-001 3.5362589359283447e-001</leafValues></_>
        <_>
          <internalNodes>
            0 -1 131 1481662164 -557089 2147450879 1073430514 1859141612
            -17686537 -285315073 1873945106</internalNodes>
          <leafValues>
            -3.3133384585380554e-001 2.5093129277229309e-001</leafValues></_>
        <_>
          <internalNodes>
            0 -1 143 -907287926 -2136823168 -2080430560 -202399102
            -976755026 -2070953856 1471623296 -974131069</internalNodes>
          <leafValues>
            -2.7404236793518066e-001 2.5915068387985229e-001</leafValues></_>
        <_>
          <internalNodes>
            0 -1 239 269496820 884479997 1073561599 -1078084113
            -1107444227 -1107443715 -1090766152 680009768</internalNodes>
          <leafValues>
            -4.0282496809959412e-001 1.8410269916057587e-001</leafValues></_>
        <_>
          <internalNodes>
            0 -1 425 1790627006 982527572 805236252 718827517 1862217726
            -855786777 -1393045505 -1996489473</internalNodes>
          <leafValues>
            -2.8962796926498413e-001 2.2815667092800140e-001</leafValues></_>
        <_>
          <internalNodes>
            0 -1 24 -289734662 2065726258 -491717712 2131818352 -5447716
            -6651998 -97452040 -16562861</internalNodes>
          <leafValues>
            -2.8491613268852234e-001 2.3254656791687012e-001</leafValues></_>
        <_>
          <internalNodes>
            0 -1 253 -1178853900 -32771 -163843 -49155 -278531 -1 -3
            -1078327248</internalNodes>
          <leafValues>
            -2.7970990538597107e-001 2.3343873023986816e-001</leafValues></_>
        <_>
          <internalNodes>
            0 -1 360 -289414656 -1187974648 -1171123663 899850274
            -58850296 -1117037296 -1125106438 -60294129</internalNodes>
          <leafValues>
            -2.6518869400024414e-001 2.3577180504798889e-001</leafValues></_>
        <_>
          <internalNodes>
            0 -1 273 -721423115 271610932 -418339 1040039935 -2563
            -1193485377 -32884 682426043</internalNodes>
          <leafValues>
            -2.7703914046287537e-001 2.1668025851249695e-001</leafValues></_>
        <_>
          <internalNodes>
            0 -1 133 1861189427 -1074184193 518994935 1073428467
            2147450751 -9207817 -352372753 -67146137</internalNodes>
          <leafValues>
            -2.0859998464584351e-001 2.7883473038673401e-001</leafValues></_>
        <_>
          <internalNodes>
            0 -1 215 -1600092168 -2566148 -16924929 -1075986443
            -1076254977 -2835459 -411649 -1359409956</internalNodes>
          <leafValues>
            -2.6153638958930969e-001 2.1254600584506989e-001</leafValues></_>
        <_>
          <internalNodes>
            0 -1 317 -201327107 1576918525 -34210308 2088561708
            -301998849 -33610244 -1510081284 769469676</internalNodes>
          <leafValues>
            -3.4308406710624695e-001 1.5775889158248901e-001</leafValues></_>
        <_>
          <internalNodes>
            0 -1 260 -168296684 1351988 2012009821 8912831 -36707316
            279762247 -1464393688 541064895</internalNodes>
          <leafValues>
            -3.8960555195808411e-001 1.4328105747699738e-001</leafValues></_>
        <_>
          <internalNodes>
            0 -1 404 -994064112 -111498160 -852857840 1432418624
            -2144730072 -924172204 70296824 -1072435021</internalNodes>
          <leafValues>
            -2.4467930197715759e-001 2.0502832531929016e-001</leafValues></_>
        <_>
          <internalNodes>
            0 -1 68 -16842817 -285802561 -2555970 1675813102 1961251830
            -924559376 -19901957 -270052141</internalNodes>
          <leafValues>
            -1.9298087060451508e-001 2.6483201980590820e-001</leafValues></_>
        <_>
          <internalNodes>
            0 -1 337 -16986920 -81922 -81921 -21505 -202051400
            -1098358796 -17908758 -1162297822</internalNodes>
          <leafValues>
            -1.8796949088573456e-001 2.6716476678848267e-001</leafValues></_>
        <_>
          <internalNodes>
            0 -1 182 -1969184016 -1159066912 -20485 -570844448
            -1450474574 -1880317698 -1879602454 -1946484528</internalNodes>
          <leafValues>
            -2.4401538074016571e-001 2.0469081401824951e-001</leafValues></_>
        <_>
          <internalNodes>
            0 -1 270 304093052 -147016708 936706047 -737356 787758936
            -1074872516 -1090773075 -1092089848</internalNodes>
          <leafValues>
            -3.3484214544296265e-001 1.4259956777095795e-001</leafValues></_>
        <_>
          <internalNodes>
            0 -1 424 -1409290714 750253007 -1073765136 -1338331526
            -1620636468 686223037 -2068198156 -252455301</internalNodes>
          <leafValues>
            -2.3299799859523773e-001 2.0570498704910278e-001</leafValues></_>
        <_>
          <internalNodes>
            0 -1 149 1440068356 1967964110 896866237 -1210073105
            2111159294 1883532940 1070938030 21342730</internalNodes>
          <leafValues>
            -2.9376962780952454e-001 1.6202074289321899e-001</leafValues></_>
        <_>
          <internalNodes>
            0 -1 109 -1042044928 -1987403122 1686120448 -605292660
            -1070766900 -2069779018 1173471360 -1056970550</internalNodes>
          <leafValues>
            -2.3311756551265717e-001 1.9945266842842102e-001</leafValues></_>
        <_>
          <internalNodes>
            0 -1 279 218102913 765982316 989852660 -1377842332
            1008696251 486407923 668958207 217049545</internalNodes>
          <leafValues>
            -2.8926670551300049e-001 1.6064998507499695e-001</leafValues></_>
        <_>
          <internalNodes>
            0 -1 169 -704843956 -1244856324 1878388658 -1427329284
            -1419984940 -1661943817 -1074938012 4465440</internalNodes>
          <leafValues>
            -6.7039531469345093e-001 6.5586902201175690e-002</leafValues></_>
        <_>
          <internalNodes>
            0 -1 261 -728459920 -151191556 1996144639 -8896556
            -412024876 -139702540 -2293763 -1096022900</internalNodes>
          <leafValues>
            -2.6269584894180298e-001 1.6652669012546539e-001</leafValues></_>
        <_>
          <internalNodes>
            0 -1 401 -629962742 -80041470 -993028552 -1874707592
            -297384448 2052332290 -1089278726 -211564542</internalNodes>
          <leafValues>
            -2.1471661329269409e-001 2.0637650787830353e-001</leafValues></_>
        <_>
          <internalNodes>
            0 -1 86 -348502862 -17680389 2146861054 1068380785
            1919969269 -9143689 1466258174 -563869</internalNodes>
          <leafValues>
            -2.1917137503623962e-001 1.9961237907409668e-001</leafValues></_>
        <_>
          <internalNodes>
            0 -1 165 -1909742870 -559243614 -289942286 -1851789616
            100984450 -890320168 1114031330 -1060125502</internalNodes>
          <leafValues>
            -2.0732662081718445e-001 2.0931750535964966e-001</leafValues></_>
        <_>
          <internalNodes>
            0 -1 303 582488312 -1560804624 -1073876483 -1090831370
            -1101385541 -1084348426 -1166595588 -1146212168</internalNodes>
          <leafValues>
            -3.1720632314682007e-001 1.3895830512046814e-001</leafValues></_>
        <_>
          <internalNodes>
            0 -1 257 -92855267 -3146055 -1082279437 -5374305 2120039724
            -18942531 -1074971737 134935851</internalNodes>
          <leafValues>
            -2.3869049549102783e-001 1.7802582681179047e-001</leafValues></_>
        <_>
          <internalNodes>
            0 -1 177 1423452384 -571472132 1038365437 -1376469249
            -1143619587 -1074230354 1073232895 449578504</internalNodes>
          <leafValues>
            -2.7079811692237854e-001 1.5788927674293518e-001</leafValues></_>
        <_>
          <internalNodes>
            0 -1 77 -1027653801 892812855 -1375912198 -1230725573
            -1486076619 1576689429 -53860352 -172755850</internalNodes>
          <leafValues>
            -2.4089519679546356e-001 1.9182850420475006e-001</leafValues></_>
        <_>
          <internalNodes>
            0 -1 280 -1326437196 -1074251331 -268555011 -537052423
            -1073873409 2097099764 -66626 -1124463952</internalNodes>
          <leafValues>
            -2.5736919045448303e-001 1.6366986930370331e-001</leafValues></_></weakClassifiers></_>
    <!-- stage 7 -->
    <_>
      <maxWeakCount>42</maxWeakCount>
      <stageThreshold>-2.5901548862457275e+000</stageThreshold>
      <weakClassifiers>
        <_>
          <internalNodes>
            0 -1 78 -1 -1 -32769 -1 -32769 -1 -49154 -1</internalNodes>
          <leafValues>
            -4.7971242666244507e-001 4.5752790570259094e-001</leafValues></_>
        <_>
          <internalNodes>
            0 -1 423 -1 788525055 -1073823745 -1342259206 -1342181377
            754970366 -1358954497 553385983</internalNodes>
          <leafValues>
            -4.0332010388374329e-001 2.7337568998336792e-001</leafValues></_>
        <_>
          <internalNodes>
            0 -1 233 -1126690724 -1107542017 -147457 -1073889281 -245763
            -180225 -1294337 789065519</internalNodes>
          <leafValues>
            -4.2034050822257996e-001 2.3239222168922424e-001</leafValues></_>
        <_>
          <internalNodes>
            0 -1 214 -131073 -2228225 -655361 -131073 -131073 -1 -131073
            -152902</internalNodes>
          <leafValues>
            -2.4658776819705963e-001 3.6150532960891724e-001</leafValues></_>
        <_>
          <internalNodes>
            0 -1 38 -823227678 -269818142 -877002205 -537853408
            -336328534 -17667077 -270069877 -2145773</internalNodes>
          <leafValues>
            -2.4825745820999146e-001 3.2070294022560120e-001</leafValues></_>
        <_>
          <internalNodes>
            0 -1 209 270007484 471121460 1071635965 1040186877
            -151126019 -1074135368 1055762687 681376936</internalNodes>
          <leafValues>
            -3.7718135118484497e-001 1.7828395962715149e-001</leafValues></_>
        <_>
          <internalNodes>
            0 -1 312 -9437292 -1627337696 -713770123 -181013513 -8393988
            -274399330 -1134756100 -50987009</internalNodes>
          <leafValues>
            -2.7242970466613770e-001 2.4556331336498260e-001</leafValues></_>
        <_>
          <internalNodes>
            0 -1 96 -67665933 -294913 -537165825 -1078248517 2080322431
            -8945801 -537165825 -34945</internalNodes>
          <leafValues>
            -2.1433697640895844e-001 3.3135530352592468e-001</leafValues></_>
        <_>
          <internalNodes>
            0 -1 144 -710171998 -2013093214 1491928576 -772588894
            1430332672 75535814 1437024256 -775424005</internalNodes>
          <leafValues>
            -2.7668294310569763e-001 2.3302656412124634e-001</leafValues></_>
        <_>
          <internalNodes>
            0 -1 218 -17252584 -533414393 -1192116931 -1107705987
            -33555012 -1126580225 -1670103364 678231867</internalNodes>
          <leafValues>
            -3.2333281636238098e-001 1.9543421268463135e-001</leafValues></_>
        <_>
          <internalNodes>
            0 -1 275 70262132 -1091256577 2003795709 -17923 -1090670603
            -196611 1056915387 715653156</internalNodes>
          <leafValues>
            -4.3914547562599182e-001 1.1385847628116608e-001</leafValues></_>
        <_>
          <internalNodes>
            0 -1 385 -210246998 -750800958 544351266 809689762
            -143458294 -546875324 -163851638 -213648829</internalNodes>
          <leafValues>
            -2.1795871853828430e-001 2.5526395440101624e-001</leafValues></_>
        <_>
          <internalNodes>
            0 -1 62 -4210753 -13437314 -114889 -5098638 1004486463
            -17678401 1056904895 391579123</internalNodes>
          <leafValues>
            -2.7135360240936279e-001 1.9978608191013336e-001</leafValues></_>
        <_>
          <internalNodes>
            0 -1 203 269488464 -1073942537 2144681983 -1076019201
            -537837636 -4444420 -4252689 730333184</internalNodes>
          <leafValues>
            -3.2709562778472900e-001 1.6351431608200073e-001</leafValues></_>
        <_>
          <internalNodes>
            0 -1 378 150717693 233801637 -1442841857 -1879048195
            759142141 230666239 12520702 -1895826561</internalNodes>
          <leafValues>
            -2.5447708368301392e-001 2.0221945643424988e-001</leafValues></_>
        <_>
          <internalNodes>
            0 -1 6 -891115534 -2018342918 -538997829 -33840672
            -825307138 -826540033 -34110722 -940096169</internalNodes>
          <leafValues>
            -2.2108899056911469e-001 2.2720800340175629e-001</leafValues></_>
        <_>
          <internalNodes>
            0 -1 420 -285219286 -2001932534 -453251872 -790171674
            -995687390 1078263648 -327201792 -255333097</internalNodes>
          <leafValues>
            -2.6892718672752380e-001 1.8249319493770599e-001</leafValues></_>
        <_>
          <internalNodes>
            0 -1 248 -277073924 -255049 1472002047 -197644 -1493381668
            -1090605122 -34816769 -1346893656</internalNodes>
          <leafValues>
            -2.7323713898658752e-001 1.7162910103797913e-001</leafValues></_>
        <_>
          <internalNodes>
            0 -1 55 -16842754 -33852422 -523056208 -1151163840
            -936188418 -123670828 -1071594256 -599529917</internalNodes>
          <leafValues>
            -2.3793023824691772e-001 1.9437295198440552e-001</leafValues></_>
        <_>
          <internalNodes>
            0 -1 304 -485936 -553873800 -803910 -1077953798 -16894032
            909669028 -1164374 -1142281728</internalNodes>
          <leafValues>
            -2.4171851575374603e-001 1.9626286625862122e-001</leafValues></_>
        <_>
          <internalNodes>
            0 -1 325 -1372049168 -1090767876 -135266305 -180740
            -1073791745 -1610729732 -1073790981 -1077993286</internalNodes>
          <leafValues>
            -2.4583533406257629e-001 1.8017229437828064e-001</leafValues></_>
        <_>
          <internalNodes>
            0 -1 104 -357586262 -779443584 -252743008 -772816160
            -1266691586 -1396121472 1420292336 -792203070</internalNodes>
          <leafValues>
            -1.8218618631362915e-001 2.3814231157302856e-001</leafValues></_>
        <_>
          <internalNodes>
            0 -1 365 -16790016 -1272005452 -1801159564 -776277584
            -881404496 -871211179 270538298 405536019</internalNodes>
          <leafValues>
            -2.7658453583717346e-001 1.5342333912849426e-001</leafValues></_>
        <_>
          <internalNodes>
            0 -1 318 681063024 -1162861096 834483197 -4606240
            -1130610784 -1090605424 -19073028 -1095234896</internalNodes>
          <leafValues>
            -3.2499411702156067e-001 1.3051581382751465e-001</leafValues></_>
        <_>
          <internalNodes>
            0 -1 0 -84936593 -182592066 -13666 -37580040 -276826707
            -377954704 -991186776 -939474816</internalNodes>
          <leafValues>
            -1.7566011846065521e-001 2.4151894450187683e-001</leafValues></_>
        <_>
          <internalNodes>
            0 -1 66 -155209978 -1341990122 -51119300 -256860592
            -840509616 -126429868 -151589232 -253235021</internalNodes>
          <leafValues>
            -2.1008257567882538e-001 1.9671693444252014e-001</leafValues></_>
        <_>
          <internalNodes>
            0 -1 65 838276915 2077671423 -17420305 1039974301 1741959158
            1962229756 -180227 2135178224</internalNodes>
          <leafValues>
            -3.3232459425926208e-001 1.2532721459865570e-001</leafValues></_>
        <_>
          <internalNodes>
            0 -1 296 -1333250896 -54542423 -17481857 -105138064 -115023
            -150529 -4213828 -1360125784</internalNodes>
          <leafValues>
            -2.4938608705997467e-001 1.6741757094860077e-001</leafValues></_>
        <_>
          <internalNodes>
            0 -1 386 -295534582 138559142 -1569280326 -1335694620
            407306240 339759172 -126366066 -243797166</internalNodes>
          <leafValues>
            -2.6588726043701172e-001 1.5433727204799652e-001</leafValues></_>
        <_>
          <internalNodes>
            0 -1 383 -1361248396 -1495410940 -1359037193 -1249984714
            754783485 750551029 -1393750808 -533464016</internalNodes>
          <leafValues>
            -2.2117003798484802e-001 1.8381842970848083e-001</leafValues></_>
        <_>
          <internalNodes>
            0 -1 292 -19100368 -67762695 -1109426177 -69281351 -21151747
            -21186600 -1638418 -1413864902</internalNodes>
          <leafValues>
            -1.9656002521514893e-001 2.0550176501274109e-001</leafValues></_>
        <_>
          <internalNodes>
            0 -1 407 -654358138 -3414812 -271203407 2040538404
            -990245640 -352704336 619859196 -1057767182</internalNodes>
          <leafValues>
            -1.9617058336734772e-001 2.0153869688510895e-001</leafValues></_>
        <_>
          <internalNodes>
            0 -1 94 -12878465 -1613021891 -599965837 960327519 -90472585
            -1073790993 -25288960 -335545771</internalNodes>
          <leafValues>
            -1.7629987001419067e-001 2.2917881608009338e-001</leafValues></_>
        <_>
          <internalNodes>
            0 -1 346 -1297041476 -1107330057 -1092879361 -1073743875
            -1107841047 -1107394817 800861951 -1343583590</internalNodes>
          <leafValues>
            -1.8669606745243073e-001 2.1787501871585846e-001</leafValues></_>
        <_>
          <internalNodes>
            0 -1 288 1816068096 -13771499 -6544325 -49877379 -1622200050
            -10486701 545007340 135068815</internalNodes>
          <leafValues>
            -3.2684275507926941e-001 1.2578353285789490e-001</leafValues></_>
        <_>
          <internalNodes>
            0 -1 29 -519921664 -2146950008 1088898288 -644769389
            -444936003 -1936743204 -187857716 -2002000760</internalNodes>
          <leafValues>
            -2.1305549144744873e-001 1.8828301131725311e-001</leafValues></_>
        <_>
          <internalNodes>
            0 -1 41 -926891422 -1846874118 2113925085 234686384
            1074071968 2061926258 -621314051 1106445584</internalNodes>
          <leafValues>
            -3.1135943531990051e-001 1.2298213690519333e-001</leafValues></_>
        <_>
          <internalNodes>
            0 -1 388 -303050884 -674414148 -1342384643 -570632708
            -1930558212 -323164932 -2063842052 167444660</internalNodes>
          <leafValues>
            -2.9031923413276672e-001 1.2978288531303406e-001</leafValues></_>
        <_>
          <internalNodes>
            0 -1 322 -50335532 274068740 -1090573249 834120447
            -1671496480 285081007 1493146877 137428729</internalNodes>
          <leafValues>
            -2.7311414480209351e-001 1.3880893588066101e-001</leafValues></_>
        <_>
          <internalNodes>
            0 -1 180 -1364706048 149487613 -545363 -1459769676
            -1082311179 -1058611211 -654373120 149752853</internalNodes>
          <leafValues>
            -3.3715334534645081e-001 1.1286883801221848e-001</leafValues></_>
        <_>
          <internalNodes>
            0 -1 118 -825302082 -1112363471 -941742252 -1805586912
            -2030158660 -1716197767 334632088 -1069358014</internalNodes>
          <leafValues>
            -2.3722369968891144e-001 1.5417005121707916e-001</leafValues></_>
        <_>
          <internalNodes>
            0 -1 313 -52429824 -1808728916 -1364539732 -1398477146
            -142646260 -1261083531 1686908040 -1528824341</internalNodes>
          <leafValues>
            -2.6785540580749512e-001 1.3796126842498779e-001</leafValues></_></weakClassifiers></_>
    <!-- stage 8 -->
    <_>
      <maxWeakCount>47</maxWeakCount>
      <stageThreshold>-2.5412762165069580e+000</stageThreshold>
      <weakClassifiers>
        <_>
          <internalNodes>
            0 -1 376 -1073750529 536813055 -1073741825 1073741823
            1073725439 1073741823 -1073745921 1006632447</internalNodes>
          <leafValues>
            -6.3531178236007690e-001 1.1837701313197613e-002</leafValues></_>
        <_>
          <internalNodes>
            0 -1 85 -32833 -32961 2147433272 -17473 -4243593 -32801
            -302041040 -2697</internalNodes>
          <leafValues>
            -3.4736511111259460e-001 2.8624060750007629e-001</leafValues></_>
        <_>
          <internalNodes>
            0 -1 14 -823463938 -327682 -268529665 -268582160 1338441726
            -1 1342132223 -805353613</internalNodes>
          <leafValues>
            -2.8421035408973694e-001 3.3255288004875183e-001</leafValues></_>
        <_>
          <internalNodes>
            0 -1 201 269490644 -212993 501039101 -1074184199 -704516
            -1196034 -180225 802684936</internalNodes>
          <leafValues>
            -3.9193245768547058e-001 2.0744942128658295e-001</leafValues></_>
        <_>
          <internalNodes>
            0 -1 70 -539557890 -134414337 -598017 -272831756 1163155444
            -556767244 -753665 1867794244</internalNodes>
          <leafValues>
            -3.6317083239555359e-001 2.0905049145221710e-001</leafValues></_>
        <_>
          <internalNodes>
            0 -1 339 -142615203 -796917889 -210011590 1887436627
            -27279864 -67109926 -118294358 -84148485</internalNodes>
          <leafValues>
            -1.8642483651638031e-001 3.6017379164695740e-001</leafValues></_>
        <_>
          <internalNodes>
            0 -1 4 -14483462 -15717616 -986644492 -50272656 -271003666
            -541917262 -108991752 -16722160</internalNodes>
          <leafValues>
            -4.5855724811553955e-001 1.3828279078006744e-001</leafValues></_>
        <_>
          <internalNodes>
            0 -1 334 -1090732292 -122881 -199681 -131169 -1073823747
            -1073823746 -1073824770 -1078282054</internalNodes>
          <leafValues>
            -2.4673010408878326e-001 2.4463473260402679e-001</leafValues></_>
        <_>
          <internalNodes>
            0 -1 364 -400563200 -1634158046 -2068803563 -1711671275
            -197999480 -61638825 10791084 -394266881</internalNodes>
          <leafValues>
            -2.1996702253818512e-001 2.5502479076385498e-001</leafValues></_>
        <_>
          <internalNodes>
            0 -1 422 -4098 15990762 -67113232 -1595740662 -1017672476
            1535860 -318769928 -520356105</internalNodes>
          <leafValues>
            -2.5534513592720032e-001 2.0543090999126434e-001</leafValues></_>
        <_>
          <internalNodes>
            0 -1 106 -471431170 -74272770 -1000449 -3133630 1182074868
            -453696322 -271212545 1811246931</internalNodes>
          <leafValues>
            -2.6869082450866699e-001 1.9355623424053192e-001</leafValues></_>
        <_>
          <internalNodes>
            0 -1 162 -84209549 -1078251023 -49153 -1145372574 -85315470
            2071928852 -433153 -71621893</internalNodes>
          <leafValues>
            -1.9956129789352417e-001 2.5308009982109070e-001</leafValues></_>
        <_>
          <internalNodes>
            0 -1 176 888353010 -22529 1073692669 -90113 -16385
            -141247496 -8519683 -3364148</internalNodes>
          <leafValues>
            -1.8963129818439484e-001 2.6487606763839722e-001</leafValues></_>
        <_>
          <internalNodes>
            0 -1 84 -608108558 -537460737 2143109095 -688205 239136752
            -641545 -2130081 2144819057</internalNodes>
          <leafValues>
            -2.3147575557231903e-001 2.0019763708114624e-001</leafValues></_>
        <_>
          <internalNodes>
            0 -1 34 -288430486 -545521741 -555353157 -1613648928
            1279066312 -303599617 -33 -839546881</internalNodes>
          <leafValues>
            -2.1518792212009430e-001 2.1777562797069550e-001</leafValues></_>
        <_>
          <internalNodes>
            0 -1 143 -911220062 -1953518974 -981524448 -36704032
            -439364433 76212386 1458032834 -1060117270</internalNodes>
          <leafValues>
            -2.0658054947853088e-001 2.1386943757534027e-001</leafValues></_>
        <_>
          <internalNodes>
            0 -1 178 -268691344 -1107676161 -49153 -1078182278
            -688243083 -1359200386 -18204674 -268492110</internalNodes>
          <leafValues>
            -2.2105534374713898e-001 1.9945178925991058e-001</leafValues></_>
        <_>
          <internalNodes>
            0 -1 428 -1957701157 803205115 769026303 -1359029508
            713727359 198818303 253817814 -857801733</internalNodes>
          <leafValues>
            -2.0161847770214081e-001 2.0682054758071899e-001</leafValues></_>
        <_>
          <internalNodes>
            0 -1 190 -285458448 -1611513868 2147433470 -318854 -16863236
            -55363 -1090639873 -285277974</internalNodes>
          <leafValues>
            -1.9146445393562317e-001 2.2555872797966003e-001</leafValues></_>
        <_>
          <internalNodes>
            0 -1 358 -8913400 811338874 -1565258628 -1334837505
            -27353080 1417105220 -1373336888 -243274229</internalNodes>
          <leafValues>
            -1.9127708673477173e-001 2.1933919191360474e-001</leafValues></_>
        <_>
          <internalNodes>
            0 -1 316 949006580 1052384432 -150017 -235095876 -1078581768
            -1090906672 -16926472 -1467340672</internalNodes>
          <leafValues>
            -2.8345963358879089e-001 1.4555625617504120e-001</leafValues></_>
        <_>
          <internalNodes>
            0 -1 163 -72680774 -7689536 -270285057 -1075064606
            -273697590 -1602211648 -136592662 -524091232</internalNodes>
          <leafValues>
            -1.7307201027870178e-001 2.3344524204730988e-001</leafValues></_>
        <_>
          <internalNodes>
            0 -1 367 -4199436 -75959824 -167807116 -35717260 -302525028
            -1130181164 -974756608 -872157066</internalNodes>
          <leafValues>
            -2.2531530261039734e-001 1.8288525938987732e-001</leafValues></_>
        <_>
          <internalNodes>
            0 -1 289 -1292617296 -1258537227 -1073790980 -1075888388
            -26332937 -1225081346 -268558340 -1076229632</internalNodes>
          <leafValues>
            -2.7144169807434082e-001 1.4892616868019104e-001</leafValues></_>
        <_>
          <internalNodes>
            0 -1 347 -1105732524 -1937834671 736897788 -1959396868
            -1074283012 -1913651717 -1090540290 -1459621895</internalNodes>
          <leafValues>
            -1.9740462303161621e-001 1.9803002476692200e-001</leafValues></_>
        <_>
          <internalNodes>
            0 -1 136 -353424890 -2294786 1072540283 -1319260292
            -538461202 -285344130 -7523394 583398110</internalNodes>
          <leafValues>
            -2.6328319311141968e-001 1.4449517428874969e-001</leafValues></_>
        <_>
          <internalNodes>
            0 -1 252 137370932 754212287 1073577839 1056784299
            1071411061 -1073743873 1073487743 753942320</internalNodes>
          <leafValues>
            -5.4991549253463745e-001 6.7848928272724152e-002</leafValues></_>
        <_>
          <internalNodes>
            0 -1 403 -877493760 -641809730 698351776 -1314856448
            1191969792 208017733 -588845860 1073954818</internalNodes>
          <leafValues>
            -3.1439316272735596e-001 1.1740325391292572e-001</leafValues></_>
        <_>
          <internalNodes>
            0 -1 107 -572530046 -408172370 -1095301984 -1610878046
            -1576773 -1930762610 1960140928 -974134654</internalNodes>
          <leafValues>
            -1.7254327237606049e-001 2.1864950656890869e-001</leafValues></_>
        <_>
          <internalNodes>
            0 -1 243 -1905259652 -1078317585 -1644232705 -1073922659
            -67322891 -1174532099 -6570242 -1433727488</internalNodes>
          <leafValues>
            -2.1751625835895538e-001 1.7216342687606812e-001</leafValues></_>
        <_>
          <internalNodes>
            0 -1 392 -268967136 539249954 -17040880 -244659424
            1309699344 -536547964 -325670136 -268254176</internalNodes>
          <leafValues>
            -2.6013812422752380e-001 1.4429576694965363e-001</leafValues></_>
        <_>
          <internalNodes>
            0 -1 50 945535007 1530043442 1022099317 -547103373
            -1086668882 -1076166954 477379246 -15467469</internalNodes>
          <leafValues>
            -1.2944495677947998e-001 2.8723409771919250e-001</leafValues></_>
        <_>
          <internalNodes>
            0 -1 152 -16888324 2100374068 -1073854726 -1162862016
            1441844640 -1657404380 -1116034312 -227326206</internalNodes>
          <leafValues>
            -2.0461362600326538e-001 1.7787392437458038e-001</leafValues></_>
        <_>
          <internalNodes>
            0 -1 147 1884627608 1891942142 1961769649 -1108557973
            -136451140 -1328219188 2069116702 105189898</internalNodes>
          <leafValues>
            -2.5817182660102844e-001 1.3997235894203186e-001</leafValues></_>
        <_>
          <internalNodes>
            0 -1 247 542402420 -1329807428 -1212350475 -1346587715
            2041851572 -33706314 -1095489172 774382080</internalNodes>
          <leafValues>
            -3.6542114615440369e-001 9.2925839126110077e-002</leafValues></_>
        <_>
          <internalNodes>
            0 -1 349 2085831691 1567829787 -1740685517 2083580160
            2038104074 167725775 -1463153942 -1069487040</internalNodes>
          <leafValues>
            -2.3706164956092834e-001 1.4800338447093964e-001</leafValues></_>
        <_>
          <internalNodes>
            0 -1 60 -858063356 -1240418777 1625291990 -1842157982
            -201292028 -398100875 -1244466048 -155713629</internalNodes>
          <leafValues>
            -2.0577178895473480e-001 1.7022958397865295e-001</leafValues></_>
        <_>
          <internalNodes>
            0 -1 406 -824190192 -1656959820 -1231963787 1573977940
            79724712 -1460478920 422880442 418115583</internalNodes>
          <leafValues>
            -1.8729689717292786e-001 1.8120749294757843e-001</leafValues></_>
        <_>
          <internalNodes>
            0 -1 237 -1195335740 -1174554881 -1091174420 -1375935172
            -1074514376 -206851 -1342914563 721947153</internalNodes>
          <leafValues>
            -2.7383899688720703e-001 1.1976720392704010e-001</leafValues></_>
        <_>
          <internalNodes>
            0 -1 311 -17302274 -8847876 1844837885 -168362756 922685694
            -17048322 150895102 452978943</internalNodes>
          <leafValues>
            -1.6950464248657227e-001 1.9636116921901703e-001</leafValues></_>
        <_>
          <internalNodes>
            0 -1 39 1037238082 -541409518 -143622160 1924168496
            -135203844 -1079984129 -20908048 407897968</internalNodes>
          <leafValues>
            -4.7095906734466553e-001 7.2836630046367645e-002</leafValues></_>
        <_>
          <internalNodes>
            0 -1 385 -855653649 -747116791 577957024 849867290
            -807434104 -201893556 -421535538 -144193077</internalNodes>
          <leafValues>
            -1.3406589627265930e-001 2.5481304526329041e-001</leafValues></_>
        <_>
          <internalNodes>
            0 -1 396 263916663 -1342219916 -1688225933 -1493202648
            469704571 -1342223361 -1650516358 -336602786</internalNodes>
          <leafValues>
            -1.9729107618331909e-001 1.7370797693729401e-001</leafValues></_>
        <_>
          <internalNodes>
            0 -1 309 -1326442352 -135222348 -213385 -1212629323
            -1095188800 -1413661250 -328770 -1415172318</internalNodes>
          <leafValues>
            -2.4157221615314484e-001 1.4017386734485626e-001</leafValues></_>
        <_>
          <internalNodes>
            0 -1 241 -462112780 -1090797573 -17448966 -1074536774
            -17301516 -72953874 -71353354 1035930230</internalNodes>
          <leafValues>
            -2.1383546292781830e-001 1.5358972549438477e-001</leafValues></_>
        <_>
          <internalNodes>
            0 -1 424 -1213209134 82099148 1071626100 -1209275166
            -1142076083 139387911 -167785217 -252446721</internalNodes>
          <leafValues>
            -1.6387508809566498e-001 2.0089213550090790e-001</leafValues></_>
        <_>
          <internalNodes>
            0 -1 300 -1505216464 -1090773251 2128508927 -1090746563
            -1091780755 -1073914946 1073422264 243800064</internalNodes>
          <leafValues>
            -4.1132262349128723e-001 8.0333933234214783e-002</leafValues></_></weakClassifiers></_>
    <!-- stage 9 -->
    <_>
      <maxWeakCount>52</maxWeakCount>
      <stageThreshold>-2.4913015365600586e+000</stageThreshold>
      <weakClassifiers>
        <_>
          <internalNodes>
            0 -1 89 -12615681 -32769 -10518529 -1 -67207297 -33793
            -49350 -1</internalNodes>
          <leafValues>
            -5.4213738441467285e-001 1.6312284767627716e-001</leafValues></_>
        <_>
          <internalNodes>
            0 -1 426 -1073741825 654311415 -1073742082 -1495876870
            -1073750081 251658237 -257 1627389947</internalNodes>
          <leafValues>
            -4.1192868351936340e-001 2.2475621104240417e-001</leafValues></_>
        <_>
          <internalNodes>
            0 -1 220 1433796607 -1048577 2004729855 -1 -1 -1 -1 -131090</internalNodes>
          <leafValues>
            -2.1826937794685364e-001 4.0283295512199402e-001</leafValues></_>
        <_>
          <internalNodes>
            0 -1 141 -823459842 -69634 -4097 -941408 1155909623 -526337
            1742209023 2146915829</internalNodes>
          <leafValues>
            -3.0480036139488220e-001 2.5323754549026489e-001</leafValues></_>
        <_>
          <internalNodes>
            0 -1 69 -1074020357 -854029 -9 -986128 656621567 1068513215
            1065303999 1198540146</internalNodes>
          <leafValues>
            -3.5821899771690369e-001 2.2177347540855408e-001</leafValues></_>
        <_>
          <internalNodes>
            0 -1 307 -8388771 1971322719 -8437953 1025507103 -548 -513
            -16778582 -1170473413</internalNodes>
          <leafValues>
            -1.9237980246543884e-001 3.5468974709510803e-001</leafValues></_>
        <_>
          <internalNodes>
            0 -1 93 1347711984 -9 2113829887 -33797 2128509925 -34067
            2080325627 1072128962</internalNodes>
          <leafValues>
            -2.9448288679122925e-001 1.9245399534702301e-001</leafValues></_>
        <_>
          <internalNodes>
            0 -1 31 -928069982 166530 -2106178942 1303740848 -923022104
            -1970644352 -1065221992 -918294557</internalNodes>
          <leafValues>
            -2.8395962715148926e-001 2.0543406903743744e-001</leafValues></_>
        <_>
          <internalNodes>
            0 -1 380 -75511282 -716965297 -2098829790 543353578
            -632619008 1057600 -261643702 1883496963</internalNodes>
          <leafValues>
            -3.1602436304092407e-001 1.6844773292541504e-001</leafValues></_>
        <_>
          <internalNodes>
            0 -1 370 -8392993 196848694 -1090531843 427534574 -917535492
            -1192555284 -387973892 536923212</internalNodes>
          <leafValues>
            -3.6815077066421509e-001 1.2015935033559799e-001</leafValues></_>
        <_>
          <internalNodes>
            0 -1 160 409336052 -545473707 1073626877 -134657 -151126020
            -7553044 -84231169 954788492</internalNodes>
          <leafValues>
            -2.1389593183994293e-001 2.2044111788272858e-001</leafValues></_>
        <_>
          <internalNodes>
            0 -1 157 1426045172 886317270 1040038143 1073474527
            -100794371 -1090737180 -132097 802011882</internalNodes>
          <leafValues>
            -2.1414503455162048e-001 2.1048708260059357e-001</leafValues></_>
        <_>
          <internalNodes>
            0 -1 263 -564658428 1612754564 -268439693 -1703937
            -126361665 -50348169 -75592001 -109723713</internalNodes>
          <leafValues>
            -1.9914616644382477e-001 2.2287052869796753e-001</leafValues></_>
        <_>
          <internalNodes>
            0 -1 211 82180069 746586031 921697873 -1358958601 1027559263
            1073608056 752826607 686674087</internalNodes>
          <leafValues>
            -2.8978842496871948e-001 1.5401491522789001e-001</leafValues></_>
        <_>
          <internalNodes>
            0 -1 108 -286347530 -352407574 -71929861 677388834
            1649420149 -135053483 -134746169 1165453171</internalNodes>
          <leafValues>
            -3.4810709953308105e-001 1.2450061738491058e-001</leafValues></_>
        <_>
          <internalNodes>
            0 -1 262 -52651536 -33769475 -136445955 -35866115 -134901771
            -2840587 -67621124 -1411904960</internalNodes>
          <leafValues>
            -2.2866146266460419e-001 1.7206642031669617e-001</leafValues></_>
        <_>
          <internalNodes>
            0 -1 361 -374349312 -1114986586 -1396724608 -1188830558
            -180927476 -1120804783 -1542791028 -872950413</internalNodes>
          <leafValues>
            -2.0809973776340485e-001 1.8941929936408997e-001</leafValues></_>
        <_>
          <internalNodes>
            0 -1 61 -272629825 -584331457 -272732233 -1410145422
            2113869147 -826838266 1040180374 -1057505081</internalNodes>
          <leafValues>
            -1.6068527102470398e-001 2.3827739059925079e-001</leafValues></_>
        <_>
          <internalNodes>
            0 -1 250 82847092 -1126936579 -135282689 -33636417
            -402900179 -658452 -1110492161 714869304</internalNodes>
          <leafValues>
            -3.2583442330360413e-001 1.1490891128778458e-001</leafValues></_>
        <_>
          <internalNodes>
            0 -1 231 -31408 -1073954817 -1073758291 -1347502292
            -536896011 -524811 -250316 671153959</internalNodes>
          <leafValues>
            -2.4547614157199860e-001 1.4823633432388306e-001</leafValues></_>
        <_>
          <internalNodes>
            0 -1 417 -50335837 -529547281 -91751848 1912337058
            -1527050809 -2066743315 -467693168 -521668877</internalNodes>
          <leafValues>
            -1.5714679658412933e-001 2.3427052795886993e-001</leafValues></_>
        <_>
          <internalNodes>
            0 -1 202 458232948 -1232110083 2071952319 -582919
            -1212908355 -1125257219 -721153 -1360920576</internalNodes>
          <leafValues>
            -2.4442559480667114e-001 1.5227329730987549e-001</leafValues></_>
        <_>
          <internalNodes>
            0 -1 158 -289776258 985284598 -575630 -1145687558 -269714314
            2146926453 -419436304 -487078718</internalNodes>
          <leafValues>
            -1.8520303070545197e-001 1.9158260524272919e-001</leafValues></_>
        <_>
          <internalNodes>
            0 -1 13 -2010911709 19759906 737656507 -172495166 1081081791
            -1363161382 1018422448 -1062211712</internalNodes>
          <leafValues>
            -1.8728579580783844e-001 1.8472667038440704e-001</leafValues></_>
        <_>
          <internalNodes>
            0 -1 115 1363948502 1976893391 33301177 534621158 1976958927
            -180052596 -573521 1372398474</internalNodes>
          <leafValues>
            -2.0606029033660889e-001 1.6198892891407013e-001</leafValues></_>
        <_>
          <internalNodes>
            0 -1 381 -147326262 606793704 -394726882 820181746
            -162459392 -732829675 -1602975522 -244069665</internalNodes>
          <leafValues>
            -1.8209694325923920e-001 1.8386356532573700e-001</leafValues></_>
        <_>
          <internalNodes>
            0 -1 286 83107444 -1224851457 -1073774625 -1074298881
            668958709 1056833469 -1074970755 786185220</internalNodes>
          <leafValues>
            -5.2529454231262207e-001 6.4587213099002838e-002</leafValues></_>
        <_>
          <internalNodes>
            0 -1 426 1312194816 -1992286600 -1497486927 956911565
            1321107213 548982456 -1935794976 -2060391420</internalNodes>
          <leafValues>
            -2.3110368847846985e-001 1.4561639726161957e-001</leafValues></_>
        <_>
          <internalNodes>
            0 -1 329 -1166798844 -1145160712 -304108878 -33640770
            -2084689520 -1213722947 -8896790 -1162203086</internalNodes>
          <leafValues>
            -2.4831043183803558e-001 1.3492064177989960e-001</leafValues></_>
        <_>
          <internalNodes>
            0 -1 399 212278292 -541142977 -845276328 -574032648
            -1930671880 -556021252 -1977328650 143182060</internalNodes>
          <leafValues>
            -3.7736949324607849e-001 8.6912915110588074e-002</leafValues></_>
        <_>
          <internalNodes>
            0 -1 335 586686512 -1162863880 2145381375 -1158267780
            704262480 435073964 721230576 -1159064984</internalNodes>
          <leafValues>
            -3.3740514516830444e-001 9.3521237373352051e-002</leafValues></_>
        <_>
          <internalNodes>
            0 -1 36 -271909122 691204914 142119611 435289680 1075479944
            -1395615824 1391852792 -846726029</internalNodes>
          <leafValues>
            -1.9196009635925293e-001 1.7323803901672363e-001</leafValues></_>
        <_>
          <internalNodes>
            0 -1 168 -792405052 401797119 2145718269 -1363854369
            -448455936 -1342181381 -1073805333 -1916466365</internalNodes>
          <leafValues>
            -1.8707843124866486e-001 1.7529226839542389e-001</leafValues></_>
        <_>
          <internalNodes>
            0 -1 43 -626032608 287473888 -329372959 -536897776
            -832649832 -1880205084 -123138822 -38055686</internalNodes>
          <leafValues>
            -1.4247985184192657e-001 2.2698672115802765e-001</leafValues></_>
        <_>
          <internalNodes>
            0 -1 378 -1628446857 -1358954503 -1895956737 -1884291477
            360422781 218103798 11513076 -1956643969</internalNodes>
          <leafValues>
            -1.7300923168659210e-001 1.9405661523342133e-001</leafValues></_>
        <_>
          <internalNodes>
            0 -1 389 -362107360 2014110880 -1999061872 -1314854688
            -1929443655 149343924 -1602416512 -1045432672</internalNodes>
          <leafValues>
            -2.1443273127079010e-001 1.4513619244098663e-001</leafValues></_>
        <_>
          <internalNodes>
            0 -1 321 -34609924 1343520845 1054785276 292253228 -8391236
            -398425 -306226866 -1464074705</internalNodes>
          <leafValues>
            -1.6021299362182617e-001 1.9587390124797821e-001</leafValues></_>
        <_>
          <internalNodes>
            0 -1 297 -581130756 1072834268 -69222409 -1077952836
            474561524 -1074514124 1064970237 -1363202008</internalNodes>
          <leafValues>
            -1.8812194466590881e-001 1.6476292908191681e-001</leafValues></_>
        <_>
          <internalNodes>
            0 -1 94 792664895 1030435389 521476656 487552893 -71663745
            1803433327 933369856 -582058479</internalNodes>
          <leafValues>
            -2.3504339158535004e-001 1.3602741062641144e-001</leafValues></_>
        <_>
          <internalNodes>
            0 -1 265 -271124 -21692996 -1635980225 -25759746 -270532867
            -33719300 1794911468 1065298678</internalNodes>
          <leafValues>
            -2.2265745699405670e-001 1.4374546706676483e-001</leafValues></_>
        <_>
          <internalNodes>
            0 -1 165 -355482960 -1882807646 1610602738 -640556816
            36416435 -937129842 1105700087 -1058028062</internalNodes>
          <leafValues>
            -1.6780559718608856e-001 1.8721115589141846e-001</leafValues></_>
        <_>
          <internalNodes>
            0 -1 257 1923555597 -7406085 1050016347 -3212060 2138554174
            -94439569 1018511087 536999343</internalNodes>
          <leafValues>
            -2.1559347212314606e-001 1.4552076160907745e-001</leafValues></_>
        <_>
          <internalNodes>
            0 -1 188 -227508048 -172052762 -25535751 -824646 -287162640
            -32047619 -554523142 -1157945622</internalNodes>
          <leafValues>
            -1.5725837647914886e-001 1.9711060822010040e-001</leafValues></_>
        <_>
          <internalNodes>
            0 -1 413 -270553338 -1246299113 1882647472 -710870144
            1247775872 -1909391578 1208468632 -1059062069</internalNodes>
          <leafValues>
            -1.5559989213943481e-001 2.0190453529357910e-001</leafValues></_>
        <_>
          <internalNodes>
            0 -1 129 -904264424 528170878 -322298960 -1413804878
            -872796840 1006206587 -1778635180 -136328092</internalNodes>
          <leafValues>
            -2.1786834299564362e-001 1.4173851907253265e-001</leafValues></_>
        <_>
          <internalNodes>
            0 -1 266 68431616 -1174526018 2079956986 -1073856594 -967047
            -352993346 -272814180 2630656</internalNodes>
          <leafValues>
            -3.9895936846733093e-001 7.7468350529670715e-002</leafValues></_>
        <_>
          <internalNodes>
            0 -1 137 -8158294 -1165037438 -307938570 -574900528
            -573574486 -1448931168 -688015962 -722485118</internalNodes>
          <leafValues>
            -1.4093391597270966e-001 2.2447909414768219e-001</leafValues></_>
        <_>
          <internalNodes>
            0 -1 174 -3013584 968631925 2147379674 -1732726944
            -1250678552 -1703914656 -55265808 -223202774</internalNodes>
          <leafValues>
            -2.1362002193927765e-001 1.4307443797588348e-001</leafValues></_>
        <_>
          <internalNodes>
            0 -1 172 -51213744 -776194506 -589890828 -1192195488
            -1493661984 -1090618444 -135751440 -223113134</internalNodes>
          <leafValues>
            -1.8956853449344635e-001 1.6431047022342682e-001</leafValues></_>
        <_>
          <internalNodes>
            0 -1 235 544215104 426540005 1476148863 939396857
            -1219215364 -155907 -1075003395 772277012</internalNodes>
          <leafValues>
            -3.5993835330009460e-001 9.0019300580024719e-002</leafValues></_>
        <_>
          <internalNodes>
            0 -1 77 -1161866954 924270388 -37282248 -734872772
            -1367581340 2094563191 -1396298720 -252390272</internalNodes>
          <leafValues>
            -2.6295262575149536e-001 1.1531212925910950e-001</leafValues></_>
        <_>
          <internalNodes>
            0 -1 1 -1744103365 -1614431581 -281085838 -1617167682
            -302326533 -51708930 -58371909 -930293632</internalNodes>
          <leafValues>
            -1.6304612159729004e-001 1.7814999818801880e-001</leafValues></_></weakClassifiers></_>
    <!-- stage 10 -->
    <_>
      <maxWeakCount>59</maxWeakCount>
      <stageThreshold>-2.5463607311248779e+000</stageThreshold>
      <weakClassifiers>
        <_>
          <internalNodes>
            0 -1 425 -1 1073741823 -1073741825 -1073741825 -1 -4097 -1
            -1</internalNodes>
          <leafValues>
            -4.6896898746490479e-001 3.3710664510726929e-001</leafValues></_>
        <_>
          <internalNodes>
            0 -1 184 -131073 -131073 -133121 -131073 -131073 -131073
            -131073 -152902</internalNodes>
          <leafValues>
            -2.7553802728652954e-001 3.5161674022674561e-001</leafValues></_>
        <_>
          <internalNodes>
            0 -1 82 1069227515 2147434495 -32769 -4505613 1060274175
            2147450879 2138799103 2138273595</internalNodes>
          <leafValues>
            -4.0148884057998657e-001 2.1825011074542999e-001</leafValues></_>
        <_>
          <internalNodes>
            0 -1 103 -286347522 -1073823745 -741377 -1342918668 -716803
            -196609 -192513 1878355831</internalNodes>
          <leafValues>
            -3.2218694686889648e-001 2.1565330028533936e-001</leafValues></_>
        <_>
          <internalNodes>
            0 -1 166 -810811478 -880104830 66807328 -1044176896
            1162148810 1149629410 1205303234 1170727619</internalNodes>
          <leafValues>
            -2.5590232014656067e-001 2.2702987492084503e-001</leafValues></_>
        <_>
          <internalNodes>
            0 -1 197 -1566524432 -1057032 -1142952961 -4325648
            -1342459906 -73730 -1074069505 -1879244112</internalNodes>
          <leafValues>
            -2.8163310885429382e-001 1.8225966393947601e-001</leafValues></_>
        <_>
          <internalNodes>
            0 -1 133 1610055543 -33029 2013167483 1069235122 -32897
            -8954113 -67141761 -8753305</internalNodes>
          <leafValues>
            -2.0965765416622162e-001 2.4794352054595947e-001</leafValues></_>
        <_>
          <internalNodes>
            0 -1 324 348126276 343276820 1056939261 905969119
            -1912605443 218100989 218044668 150994095</internalNodes>
          <leafValues>
            -3.3397039771080017e-001 1.4874225854873657e-001</leafValues></_>
        <_>
          <internalNodes>
            0 -1 351 -8926453 -193 -1368937941 -1985303798 -183827448
            -15233275 -63992690 -16253425</internalNodes>
          <leafValues>
            -1.7061436176300049e-001 2.8631103038787842e-001</leafValues></_>
        <_>
          <internalNodes>
            0 -1 67 -1 -390662401 -589962 -813637470 -693701307
            -714029657 -134818313 -672672521</internalNodes>
          <leafValues>
            -2.0369528234004974e-001 2.2766830027103424e-001</leafValues></_>
        <_>
          <internalNodes>
            0 -1 264 354423804 -1208180867 -131073 -1073889285 -196611
            -1208172545 -270778371 1065893512</internalNodes>
          <leafValues>
            -3.1624168157577515e-001 1.3954520225524902e-001</leafValues></_>
        <_>
          <internalNodes>
            0 -1 21 -1062281182 50497698 -285275605 1369770507
            -327433014 -930361619 -319618936 -928257845</internalNodes>
          <leafValues>
            -2.0838680863380432e-001 1.9642575085163116e-001</leafValues></_>
        <_>
          <internalNodes>
            0 -1 379 -576733101 1599208287 -495848910 1884549969
            -83963200 -648809664 -268242246 -267126181</internalNodes>
          <leafValues>
            -1.6147002577781677e-001 2.5263062119483948e-001</leafValues></_>
        <_>
          <internalNodes>
            0 -1 205 -42467852 884801532 -262275 -1111490561 -655875
            -1663173224 -67240023 143195678</internalNodes>
          <leafValues>
            -2.4523207545280457e-001 1.6068553924560547e-001</leafValues></_>
        <_>
          <internalNodes>
            0 -1 159 -330674196 -5095558 1073627132 -1078445550
            -1033961553 -13486283 -939720705 -805419582</internalNodes>
          <leafValues>
            -1.8110205233097076e-001 2.0473514497280121e-001</leafValues></_>
        <_>
          <internalNodes>
            0 -1 428 266327547 786431485 -2015396609 -1909474562
            789487615 737934331 707722239 -1978990625</internalNodes>
          <leafValues>
            -2.1319209039211273e-001 1.7145265638828278e-001</leafValues></_>
        <_>
          <internalNodes>
            0 -1 32 -936456702 -102039822 150791933 401715184 13369984
            -184657929 216383712 -839520269</internalNodes>
          <leafValues>
            -2.5327557325363159e-001 1.4428985118865967e-001</leafValues></_>
        <_>
          <internalNodes>
            0 -1 268 -31984624 808500788 -1402159684 -239813441
            -306184193 -239747147 614868616 1018538</internalNodes>
          <leafValues>
            -2.6988571882247925e-001 1.3175252079963684e-001</leafValues></_>
        <_>
          <internalNodes>
            0 -1 274 917257268 -34045955 -536928265 -1073856516 -196615
            -1141600323 -1074143235 716701712</internalNodes>
          <leafValues>
            -4.1458854079246521e-001 8.3393163979053497e-002</leafValues></_>
        <_>
          <internalNodes>
            0 -1 415 -360714720 1625353636 -424743248 -102445652
            81757312 16711468 -1062742880 -521144334</internalNodes>
          <leafValues>
            -2.1857750415802002e-001 1.5588009357452393e-001</leafValues></_>
        <_>
          <internalNodes>
            0 -1 305 -163 -12587761 -193 -1119158982 -18880584
            -100860164 -17107430 -1171065037</internalNodes>
          <leafValues>
            -1.3591405749320984e-001 2.5495961308479309e-001</leafValues></_>
        <_>
          <internalNodes>
            0 -1 44 976394035 -47184112 792068029 -651100592 -552935250
            -1078837851 405845136 -63708141</internalNodes>
          <leafValues>
            -1.7485743761062622e-001 1.9692224264144897e-001</leafValues></_>
        <_>
          <internalNodes>
            0 -1 212 -1341117132 -538577039 -245769 -1074311179 -985091
            -2101761 -1409417219 -1364710400</internalNodes>
          <leafValues>
            -2.7691492438316345e-001 1.1554781347513199e-001</leafValues></_>
        <_>
          <internalNodes>
            0 -1 424 -33559561 750118847 532659958 -1309020566 192802765
            944689131 -1929916964 1895563263</internalNodes>
          <leafValues>
            -1.7462645471096039e-001 1.8555331230163574e-001</leafValues></_>
        <_>
          <internalNodes>
            0 -1 402 -938244064 -609487214 -1355262160 1058028034
            408552600 -72338285 -1975075078 140759066</internalNodes>
          <leafValues>
            -2.2571285068988800e-001 1.4139185845851898e-001</leafValues></_>
        <_>
          <internalNodes>
            0 -1 302 117726556 -1157705731 -12681731 533495805
            -1344307267 -1073774595 1014923230 252198732</internalNodes>
          <leafValues>
            -3.7896132469177246e-001 8.3726778626441956e-002</leafValues></_>
        <_>
          <internalNodes>
            0 -1 150 -277840004 -2818050 -671531528 788459246 -4
            660907012 -134404228 575414976</internalNodes>
          <leafValues>
            -4.6281036734580994e-001 6.3211299479007721e-002</leafValues></_>
        <_>
          <internalNodes>
            0 -1 167 -17830174 -978680702 -571011216 -678710144
            1734084432 -2065371258 -727293466 -993024341</internalNodes>
          <leafValues>
            -1.6017362475395203e-001 1.9516351819038391e-001</leafValues></_>
        <_>
          <internalNodes>
            0 -1 284 173023600 733751920 1877745501 1073282300
            -1080254564 -376900 -1080119556 -1365769168</internalNodes>
          <leafValues>
            -3.2298812270164490e-001 9.9910013377666473e-002</leafValues></_>
        <_>
          <internalNodes>
            0 -1 236 -23155428 72414470 -177883715 772620218 -192961996
            -1242267655 -457362904 674103103</internalNodes>
          <leafValues>
            -2.9001352190971375e-001 1.0489362478256226e-001</leafValues></_>
        <_>
          <internalNodes>
            0 -1 79 -290787406 2063792430 -286122189 -148885134
            537028355 1567848295 38953232 1145258052</internalNodes>
          <leafValues>
            -3.5130652785301208e-001 8.8463582098484039e-002</leafValues></_>
        <_>
          <internalNodes>
            0 -1 124 1467824891 -135546881 2080309183 -204801 -136331787
            -7529537 -10616833 -7471202</internalNodes>
          <leafValues>
            -9.1964088380336761e-002 3.2434606552124023e-001</leafValues></_>
        <_>
          <internalNodes>
            0 -1 299 -822829844 -246095 -687931527 -2265996 -269484107
            -1082605569 -4104 -1348591568</internalNodes>
          <leafValues>
            -1.9297759234905243e-001 1.5083964169025421e-001</leafValues></_>
        <_>
          <internalNodes>
            0 -1 328 205776581 218103507 -1136923906 81784820
            -1375933412 218049661 -1880385314 -1929392703</internalNodes>
          <leafValues>
            -2.3481324315071106e-001 1.2227462977170944e-001</leafValues></_>
        <_>
          <internalNodes>
            0 -1 59 -755040586 -546066586 1853512634 -1077221856
            -1796176668 -1636809356 -387875588 -898373049</internalNodes>
          <leafValues>
            -1.7036032676696777e-001 1.7284494638442993e-001</leafValues></_>
        <_>
          <internalNodes>
            0 -1 400 -1745124862 -650642694 1962141946 -263013662
            -1032355648 -141276096 -2030832950 -237772160</internalNodes>
          <leafValues>
            -1.6180208325386047e-001 1.8272893130779266e-001</leafValues></_>
        <_>
          <internalNodes>
            0 -1 178 -357035980 687484789 2147040253 -840846 -1862914464
            1845246438 -34981965 -472965072</internalNodes>
          <leafValues>
            -2.2131901979446411e-001 1.3194605708122253e-001</leafValues></_>
        <_>
          <internalNodes>
            0 -1 7 -2082428125 -1980223492 1677150899 -638513417
            -335749393 -331913 -957297238 1198606165</internalNodes>
          <leafValues>
            -2.3560066521167755e-001 1.2370872497558594e-001</leafValues></_>
        <_>
          <internalNodes>
            0 -1 222 -267067404 -587403780 -2334723 -245763 -428560911
            -153747467 -1344422147 -1126355448</internalNodes>
          <leafValues>
            -1.7392134666442871e-001 1.7231087386608124e-001</leafValues></_>
        <_>
          <internalNodes>
            0 -1 308 -146810668 -1083900108 1073610101 -143396256
            -1358963009 -1146556445 -872551681 -68813901</internalNodes>
          <leafValues>
            -1.4934766292572021e-001 1.9757680594921112e-001</leafValues></_>
        <_>
          <internalNodes>
            0 -1 355 -285752244 1439563100 -297996598 1920727647
            -59932600 2104752452 441852666 1920185866</internalNodes>
          <leafValues>
            -1.9480140507221222e-001 1.4923179149627686e-001</leafValues></_>
        <_>
          <internalNodes>
            0 -1 100 -269567438 -1468614145 -87150 -1413693522
            -268488876 1490841069 -335721636 1323652947</internalNodes>
          <leafValues>
            -2.3091521859169006e-001 1.2037527561187744e-001</leafValues></_>
        <_>
          <internalNodes>
            0 -1 410 -427839978 883473472 -1395131024 274000048
            -1060748896 -1943787659 -386473496 -1067990906</internalNodes>
          <leafValues>
            -1.8763828277587891e-001 1.4724616706371307e-001</leafValues></_>
        <_>
          <internalNodes>
            0 -1 244 1449965460 1065102335 -335675425 -360586 2122165492
            -537248272 -1309491205 -1078248614</internalNodes>
          <leafValues>
            -1.5170785784721375e-001 1.8342062830924988e-001</leafValues></_>
        <_>
          <internalNodes>
            0 -1 332 -1535639152 -1140972616 -1073824258 -34064976
            -436427371 -8528196 -325313358 -2002124800</internalNodes>
          <leafValues>
            -2.5297242403030396e-001 1.1086863279342651e-001</leafValues></_>
        <_>
          <internalNodes>
            0 -1 132 1796366143 781071787 -271303817 798505756 990002019
            2134866223 -603226348 -282853597</internalNodes>
          <leafValues>
            -2.1039433777332306e-001 1.3724015653133392e-001</leafValues></_>
        <_>
          <internalNodes>
            0 -1 390 -1619039877 -1209012692 -1342179184 -5821912
            -558904113 -389392562 -456453992 -266607870</internalNodes>
          <leafValues>
            -1.2728144228458405e-001 2.2421668469905853e-001</leafValues></_>
        <_>
          <internalNodes>
            0 -1 98 -357856565 2058005638 -1361056586 -1158771032
            -805310476 1847336354 -8396056 -1060372288</internalNodes>
          <leafValues>
            -1.8111170828342438e-001 1.5905126929283142e-001</leafValues></_>
        <_>
          <internalNodes>
            0 -1 49 -801906126 268829188 760327408 -168791984 -319098704
            -823622923 -998976840 -332151694</internalNodes>
          <leafValues>
            -1.5741235017776489e-001 1.8319356441497803e-001</leafValues></_>
        <_>
          <internalNodes>
            0 -1 334 -1426801104 -1140906114 -1073939589 -1091125315
            -1543525900 -1128335233 -1208536333 -1078744350</internalNodes>
          <leafValues>
            -1.6932325065135956e-001 1.7117241024971008e-001</leafValues></_>
        <_>
          <internalNodes>
            0 -1 344 -1217409964 1460729092 -1361331460 826140164
            1072528573 479649261 -1100017986 -117380308</internalNodes>
          <leafValues>
            -1.6810090839862823e-001 1.6770654916763306e-001</leafValues></_>
        <_>
          <internalNodes>
            0 -1 420 -991959194 1818947344 -1661260292 -257781852
            1173817136 -993722493 -197956224 -191369926</internalNodes>
          <leafValues>
            -1.9199748337268829e-001 1.4132414758205414e-001</leafValues></_>
        <_>
          <internalNodes>
            0 -1 119 -287661178 -134605430 -19466152 -15667646
            -573262380 1555388161 -50946100 -187177314</internalNodes>
          <leafValues>
            -1.5012480318546295e-001 1.8259759247303009e-001</leafValues></_>
        <_>
          <internalNodes>
            0 -1 346 -1293353612 -1427734532 -1159806977 -1141129729
            -1182842908 -67142145 -1091683076 -1074617734</internalNodes>
          <leafValues>
            -1.6494877636432648e-001 1.6539162397384644e-001</leafValues></_>
        <_>
          <internalNodes>
            0 -1 377 -1388660400 -1367412869 1071562620 -1435041922
            -1426113068 704444317 -1392625410 -534709752</internalNodes>
          <leafValues>
            -2.0193968713283539e-001 1.3473837077617645e-001</leafValues></_>
        <_>
          <internalNodes>
            0 -1 234 -994924976 68064950 -1073959111 -1381437634
            -86803084 -559435299 -17555920 540735779</internalNodes>
          <leafValues>
            -2.7992007136344910e-001 9.6710778772830963e-002</leafValues></_>
        <_>
          <internalNodes>
            0 -1 357 -872774480 1063583368 1358738548 -776680260
            752697532 -52494852 149738652 148657404</internalNodes>
          <leafValues>
            -4.3655887246131897e-001 6.1849247664213181e-002</leafValues></_>
        <_>
          <internalNodes>
            0 -1 47 -473914462 2080047039 1974947611 154445544
            -1243348128 -1178276871 -2785558 1397637634</internalNodes>
          <leafValues>
            -2.3542933166027069e-001 1.1454720050096512e-001</leafValues></_>
        <_>
